I 0.868868 -1.359118 -0.059196 -1.406579 -0.348781 0.015997 -0.164172 -0.489464 1.174482 -0.040458 -0.427739 -0.241681 0.179318 -0.367066 0.234815 -0.224434 0.406422 0.131753 -1.015316 0.471819 1.094586 0.050580 -0.024813 -0.374278 -0.812132 0.320616 -0.365175 0.950374 -0.702093 0.386292 0.475026 0.959604 0.459121 0.025509 -0.590558 1.874076 0.008568 -0.068977 0.720467 0.718148 -1.935683 -0.197851 0.344390 0.060801 0.007787 1.449071 0.082268 -0.389060 -0.742047 -0.283644
you 0.878639 -1.687448 -0.174340 -0.850947 -0.157135 -0.140621 -0.448497 0.682559 0.361707 0.990857 0.165933 -0.720906 0.461896 0.441105 -0.661165 -0.461654 0.998275 0.723728 -0.234923 -1.042147 0.326442 0.548089 -0.341164 -0.194086 -0.352218 0.530916 -0.353163 -0.803868 -1.112979 -0.597615 0.051170 0.611520 0.296485 -0.067542 -0.442504 0.556481 0.472075 -0.075221 0.619995 0.114194 -0.972911 0.618714 -0.026570 -1.226188 0.057183 1.715488 -0.098754 -0.235452 -0.190632 -0.181749
the 0.121526 -0.649107 0.378900 -1.065152 1.074007 0.751337 -0.261940 0.751652 -0.425238 -0.733313 0.804081 -0.313227 -0.549943 0.146243 -0.551780 -1.541186 -0.972578 -0.171592 -0.573413 -0.605735 0.671898 0.446247 -0.660650 -0.614386 -0.228243 0.247849 -0.460065 -0.139622 -1.058278 0.388800 0.330468 0.946796 -0.515668 -0.026303 -1.322660 1.377363 -0.357476 0.722119 0.109562 -1.172173 -0.273804 -0.260690 -0.030923 -1.078018 0.704047 0.793799 -0.543056 -0.818814 -0.881127 0.480579
to 0.911121 -0.963608 -1.190861 -1.467641 0.752045 1.008931 -0.733346 0.759880 -0.258389 -0.196586 -0.030028 -0.704836 -0.629927 0.188543 -0.713852 -0.994432 -0.151095 0.870872 -1.486554 -0.287252 0.634497 0.822443 0.801843 -0.666011 -0.887072 -0.024038 -0.511073 -0.399336 -0.554468 0.701344 0.546451 -0.482690 0.679588 -0.120805 -0.586168 0.161740 0.285675 0.675195 -0.097768 0.420570 -0.764653 0.613067 0.973293 -0.348042 0.941513 0.792699 0.787158 -1.005736 0.567050 -1.001792
a -0.257470 -0.490738 0.601550 -0.790975 0.175199 0.027833 -0.941797 0.465725 0.905920 0.021718 -0.183934 -2.318759 -0.707278 1.291617 0.720701 -0.691162 0.797195 0.030153 -1.140946 -0.032248 0.179184 -0.079552 0.364524 0.094331 -1.148710 0.442963 -2.148294 0.466798 -0.068563 0.103779 0.616861 -0.873247 -0.533750 0.585217 0.577307 0.430523 -0.209899 -0.387077 0.153839 -0.210503 0.047052 -0.379129 -0.253038 -0.895551 0.657897 1.809690 -1.044576 -0.635786 -0.103792 -0.175739
Oh 0.769222 -0.248001 0.974371 -0.823751 0.530446 0.594006 -0.034367 -0.548434 0.548759 0.653746 0.184864 -0.975039 -0.039494 0.015639 -0.258310 0.080547 -0.026896 1.042409 -0.109067 -0.571946 0.464301 -0.894025 -0.717617 -0.167760 -0.688128 -0.436018 -0.669621 -0.194980 -1.389508 -0.186724 -0.426669 0.269746 0.168967 -0.666291 -0.125227 0.281165 0.727648 0.089145 0.836462 -0.321739 -0.667962 -0.427512 0.047044 -0.932421 1.374011 0.577229 0.056459 -0.787379 -0.512846 -0.539215
it 0.765368 -1.041720 0.517726 -0.498554 0.736817 0.100298 -0.773820 -0.193445 0.128854 0.275060 -0.912830 -1.106027 0.088094 -0.610472 -0.461433 -0.716500 -0.601539 0.962954 0.674362 0.425377 -0.447141 0.356011 0.922307 -0.292523 -0.480674 -0.283434 -1.310916 -0.150356 -1.065755 -0.042303 -0.052957 0.633687 0.658324 0.238520 -1.542327 1.127988 0.822812 0.590475 -0.293520 0.376631 -0.880356 -0.025208 0.022293 -0.132612 -0.726872 1.080621 -0.709847 -0.566673 -0.335031 0.388419
and 0.077596 -0.232578 -0.634688 -0.631785 0.210244 -0.428105 -0.385318 0.204925 0.060610 -0.300040 0.172763 -1.099682 -0.441226 0.052717 -0.727732 -1.587935 0.561143 0.095138 -0.074650 0.477274 0.189520 -0.689133 0.532497 -0.208389 -0.685174 -0.115769 -0.215100 -0.380368 -0.640748 0.444046 1.141248 0.766821 -0.196175 -0.449563 0.328451 0.803364 -0.245707 0.527795 0.777116 -0.442438 -0.845687 -0.080756 -0.270283 0.051841 0.554714 1.085925 -0.278189 -0.946107 -0.449419 -0.284780
that 0.198298 -0.752386 0.263600 -1.002213 0.827822 -0.070063 -0.907087 0.802147 0.460192 0.350495 -0.177238 -0.662579 0.013511 -0.366790 -0.450976 0.318173 -0.525839 -0.775566 -1.001485 -0.143621 -0.266636 -0.084383 0.354040 -0.683235 -0.271956 -0.042401 -0.322230 0.201169 -1.410321 -0.566304 0.037466 0.601716 0.068422 0.187367 -0.584743 0.740855 -0.198874 0.318892 0.603752 0.720692 -0.934414 0.215653 0.163941 -1.111886 0.417274 1.083742 -0.713869 0.167549 -0.421402 0.043865
me 0.242584 -1.269411 -0.047869 -0.742865 1.073274 0.248775 -0.762368 0.097670 0.480436 0.939067 0.050569 -1.006654 -0.249863 -0.373297 -1.213233 -0.240097 1.100240 -0.192529 -0.091286 -1.550845 0.217441 -0.374082 0.217413 -0.034502 -0.972663 0.465626 -0.586226 0.124292 -1.365984 -0.328389 -0.105995 0.275716 -0.414460 -0.121875 -0.231509 0.323309 0.843972 0.004426 0.050088 0.097919 -0.865240 0.765481 0.167724 0.287893 0.714882 0.986449 -0.348599 0.500550 0.453099 0.892866
is -0.080267 -0.538302 0.484900 -0.047269 1.241054 -0.024145 -0.567279 0.057038 0.084848 0.251861 -1.234745 -0.276067 -0.478701 0.057656 0.511614 -1.088341 -0.130980 0.023670 -0.023119 -0.420667 0.648985 -0.372383 0.424382 -0.230895 -0.847942 -0.011425 -0.327689 -0.891132 -1.497428 -0.026494 0.639320 -0.182244 1.135303 -0.270782 -0.801621 0.664779 -0.728947 -0.251100 0.197926 0.502488 0.047613 -0.960861 -0.642494 -0.815421 1.126878 0.693642 0.242967 -0.073571 -0.182860 0.537404
of -0.376945 -0.831014 -0.598261 0.156482 0.574646 -0.558078 0.182657 0.181884 0.185040 -0.438935 0.601246 -0.304225 -0.244125 1.100950 0.866878 -0.494656 0.315725 -1.022492 -0.927212 -0.323991 0.246863 -1.068470 0.721744 -0.080363 -1.550121 0.698216 -1.669812 -0.511519 -1.055033 -0.501514 0.033495 0.780769 0.340189 -1.185400 -0.346644 1.231716 -0.404584 0.859341 -0.321103 -0.407790 -0.008818 0.032849 0.384388 -0.955258 0.432310 0.823283 -0.722824 -0.443649 0.262997 -0.750899
this 0.577286 -0.735691 0.252562 -0.188707 0.862975 0.668500 -0.076018 0.023909 -0.101916 0.730874 -1.550818 -0.514335 -0.216314 0.097584 -0.020875 -0.665475 -0.236762 -0.549712 -0.446789 0.243807 0.367959 0.010929 0.393836 -0.220756 -1.197956 0.067834 -0.208219 0.237876 -1.189433 -0.502061 0.688984 -0.053362 0.698893 -0.320879 -0.657387 0.381280 -0.031114 0.216384 0.046803 0.784553 -0.507605 -0.575310 -0.271823 -0.940190 0.173712 0.802660 -0.390021 -0.256999 -1.022547 0.208366
in 1.046736 0.290109 0.026228 -0.914534 0.647141 -0.257912 0.437111 0.771447 -0.096596 0.346398 0.209310 0.361185 -0.560507 0.496587 -0.033592 -1.146751 0.311415 0.033814 -0.336646 -0.426390 0.000252 -0.964405 0.131982 -0.170372 -0.536300 0.448381 -0.958657 0.329644 -1.012254 0.092798 0.582105 -0.253915 -0.011808 0.075280 -0.335917 0.982499 0.046730 0.110730 0.958158 0.040341 -0.602673 -0.321168 -0.562984 -0.658611 -0.336382 0.742573 -0.469936 -0.348336 -0.721402 0.063972
just 0.785033 -0.862775 -0.794636 -0.931461 0.610295 0.263648 -0.482020 0.016484 0.347825 0.257742 0.111860 -0.524328 -0.280379 -1.065455 -0.735128 -0.591308 0.056518 -0.119009 -0.325848 0.230370 0.398918 -0.131595 -0.101869 -0.668378 -1.333842 0.556850 -0.909499 0.100264 -0.439025 0.318609 0.203228 0.490785 0.059603 0.282854 -0.098150 0.132186 0.565244 -0.342541 0.512412 0.236678 -1.073446 -0.086391 -0.081815 -0.758795 0.079918 0.715540 -0.794979 -0.125684 0.148163 -0.173272
my 0.061551 -0.593051 0.977427 -0.497223 0.410455 -0.296336 0.205579 -0.691145 0.624985 0.129493 -0.447156 -0.218755 -2.016275 0.126273 -0.404887 -1.061343 0.137963 0.187778 -0.583235 -0.126482 -0.136472 0.249907 -0.326958 -0.715528 -0.860411 -0.237964 -0.242075 0.038187 -1.692397 -0.286833 -0.447027 -0.029914 0.675627 -1.043335 0.218784 0.659834 0.657702 0.137715 1.056350 -0.783429 -0.307371 -0.408913 -0.461225 -0.745841 0.213787 0.137265 -0.422952 -0.193648 -0.062883 -0.893149
have 0.896727 -0.724307 -0.285105 -0.895611 0.438183 -0.400418 -0.180923 -0.496568 0.183695 0.029250 -0.162549 -0.932037 -0.100517 1.089339 -0.675382 -0.159758 0.279530 -0.379583 -0.384375 -0.198991 0.588073 -0.077710 -0.163558 -0.194382 -0.828206 -0.353116 -0.384871 -0.001072 -0.075015 0.103608 0.715843 0.230632 0.199177 -0.135625 -0.770139 0.464232 -0.377783 -0.786634 0.094157 0.239828 0.016322 0.012200 0.310147 -1.178230 0.223659 1.699884 0.008986 -1.042889 0.312853 -0.647192
Yeah 0.006064 -0.384209 0.284519 -0.565649 0.766163 0.077203 0.134363 -0.174022 0.224199 0.753292 0.181805 -0.723801 0.664008 0.261800 -0.129336 -0.406456 0.065912 0.628180 -0.545688 -0.244369 0.109582 -0.741254 -0.146304 -0.648433 -0.138915 -0.326709 -0.485779 -0.250039 -1.084019 -0.046639 0.455419 0.124800 -0.142667 0.330948 -0.242267 0.807681 0.645432 0.788768 0.261945 0.580567 -0.523191 -0.582513 0.072186 -1.131667 0.253021 0.810216 0.247544 -0.160106 -0.488974 -0.366298
Okay -0.241878 -0.658101 0.264970 -0.198962 1.047953 0.592641 0.411451 -0.534810 -0.089731 1.017435 -0.388216 -1.065875 0.050305 0.259211 -0.353817 -0.728593 0.401407 0.199282 0.234165 -0.110548 0.665985 0.004793 0.138571 -0.193833 -0.239624 -0.007573 -0.527576 -0.475176 -0.402981 -0.247814 0.725788 -0.185212 0.356072 0.066054 -0.480065 0.300206 0.395476 0.167280 0.537323 0.231196 -0.765280 -0.318663 0.409143 -1.651345 0.003812 0.397213 -0.194361 0.816212 0.221642 -0.364208
know 0.216515 -0.990235 -0.098240 -0.803188 0.132783 -0.199270 -0.568789 -0.166388 0.083041 0.419186 -0.501486 -0.730806 0.458353 -0.012423 -0.307872 0.074624 0.146466 0.006808 -0.072926 -0.428059 0.951319 0.114672 0.272301 -0.411067 -0.468437 0.139381 -0.145951 -0.029626 -1.253110 0.047166 0.868085 1.092087 -0.010835 0.195779 -0.013579 0.936756 -0.113853 -0.500889 0.352378 0.622792 -0.657807 -0.130267 -0.280208 -0.764883 0.234864 1.042735 -0.414936 -0.449266 0.065930 0.045236
I'm -0.145303 -1.084245 0.258026 0.177353 0.800459 0.280824 -0.739963 1.000139 -0.048285 0.707807 -0.305764 0.043755 -0.230359 -0.522017 -0.576446 -0.423293 0.807537 0.584024 -0.623260 0.602605 1.148412 -0.476991 -0.359670 -0.645884 -0.541961 0.194799 -1.112539 -0.061660 -0.523706 0.261607 -0.255612 0.473175 0.359360 -0.573755 0.334457 -0.171982 -0.005256 0.432813 0.175077 0.412990 -1.159097 -0.438886 0.469406 -1.080427 0.176225 0.993901 -0.187343 0.057263 -0.302457 -0.653981
on 0.452513 0.143881 0.214161 -0.944659 0.599486 0.009275 0.563611 -0.325393 -0.259577 -0.261539 -1.079312 -0.269068 -0.715661 0.199140 -0.409134 -1.171208 0.244244 -0.007099 -0.019807 -0.657361 0.428737 0.182679 0.072938 -0.650391 -0.228966 1.378921 -1.883973 -0.711100 -0.768963 0.429310 0.062514 -0.439381 -0.495774 0.545121 -0.453293 0.262811 0.128608 -0.380043 0.659360 0.215178 0.077892 0.368298 0.209369 -1.112812 -0.407638 0.335611 -0.180297 -0.650566 -0.790536 0.124479
do 0.670263 -0.801633 -0.072252 -0.207135 0.976649 -0.464867 -0.394785 0.197292 0.307427 0.590880 -0.760635 -0.904198 0.315760 0.186753 -0.338262 0.186529 0.029235 0.310572 0.002461 -0.408780 0.134326 0.571523 0.230364 -0.684561 -0.009145 -0.177212 -0.288145 0.091040 -0.672433 -0.051634 0.628039 0.872651 0.041603 0.127798 -0.803487 0.819153 -0.130280 0.169332 -0.281685 0.798330 -0.400258 -0.001566 0.383895 -1.525283 -0.154611 1.526718 0.049617 -0.261767 -0.068678 -0.185049
No 0.574493 -0.292283 0.587812 -0.288018 0.999008 -0.084183 0.167041 -0.106351 0.351390 -0.275986 -0.409425 -0.856339 0.237291 -0.517750 0.136170 -0.414275 -0.080951 0.618183 0.144581 -0.731108 1.279065 -0.552756 -0.741130 -0.958116 -1.018272 0.090394 -0.905343 -0.124227 -0.237650 0.016556 -0.879650 0.322411 0.418117 -0.450905 -0.463625 0.664006 0.315066 -0.357098 0.777158 0.729832 0.144219 0.418442 -0.053806 -0.534231 0.473657 0.766852 -0.595536 -0.647375 0.857618 0.201731
for 0.240443 -0.568476 -0.115386 -0.095319 1.128886 -0.050834 0.347039 0.699093 -0.262843 0.384419 -0.067033 0.196000 1.083548 0.436703 -0.458420 -1.192228 0.815483 -0.119098 -1.119585 -0.614480 0.592526 -0.114996 -0.317446 0.561224 -1.794474 -0.230252 -0.683294 -0.003004 -0.310682 0.058273 0.499431 -0.536819 0.258692 0.134944 -0.379326 0.682226 0.114432 -0.153069 0.403874 -0.329587 -0.881314 0.123073 0.069604 0.324009 0.527247 1.395407 -0.149546 -0.126706 -0.162519 -0.803441
was 0.088111 -0.379399 0.148054 -0.868349 0.494431 -0.797933 -0.640590 0.295884 1.169153 -0.357467 -0.038322 -0.325615 0.218989 -0.634981 -0.782400 -0.620828 -0.647760 0.321550 -1.205617 -0.389665 0.457442 -0.272470 0.263140 0.297801 -1.079667 -0.743326 -0.910296 -0.654159 -1.114256 0.232864 0.056557 0.354500 0.660561 0.711330 -0.262619 0.960242 0.845978 -0.567579 0.666545 -0.237285 -1.175406 -0.342029 -0.613886 -0.207394 0.192975 0.332541 -0.033456 0.269161 -0.085259 0.422058
You 0.771094 -0.851233 0.382102 -0.649981 0.008636 -0.448002 0.004891 -0.329466 0.550168 0.577281 -0.093859 -0.645363 0.282216 0.308144 -0.601297 -0.547869 0.373715 0.820148 -0.488821 -0.956669 0.233291 0.366340 -0.359251 -0.725011 -0.164617 -0.108291 0.228492 0.812098 -1.088669 -0.035524 0.439560 0.755469 0.212773 -0.431008 -0.672748 0.012932 -0.132544 0.023084 0.432026 0.283351 -0.743461 -0.015943 -0.336597 -0.774242 -0.021817 1.355426 -0.830586 -0.357331 0.153171 -0.107734
not -0.081569 -0.696574 0.308346 -0.685847 1.253193 -0.439414 -1.103830 0.947865 -0.349521 -0.012554 -0.309628 -0.256917 0.276383 -0.656208 -0.498227 -0.128456 0.414498 0.514962 0.396621 0.320974 0.737211 -0.311582 -0.112229 -0.719526 -0.735552 0.587675 -1.195565 -0.285725 -0.482295 -0.209500 -0.224207 0.352204 0.469285 -0.461915 0.007807 0.428683 0.057495 -0.460674 0.577315 0.914098 0.555809 -0.430548 0.216326 -0.979269 0.254790 1.543675 0.081012 0.077976 0.299052 -0.187472
with 0.887934 -0.137497 0.739841 -0.515753 -0.356267 0.174163 0.439048 1.010008 0.456129 -0.366804 -0.535035 -0.325770 0.095129 0.309437 -0.778078 -0.972804 0.334417 -0.786862 -0.829794 0.063678 0.473396 -0.967230 0.789880 -1.040125 -0.225340 -0.017656 -0.347748 -0.519790 -0.641184 0.035589 -0.229522 0.131770 -0.370230 -0.674456 -0.305559 0.076820 0.066282 0.088880 0.244378 0.275607 -0.238965 0.717709 0.351607 -0.842343 0.268352 1.764934 0.770069 -0.842179 -0.105039 -0.021168
Hey 0.512769 0.596768 0.375203 0.150691 1.001288 -0.218351 -0.484283 0.081270 0.687938 0.491091 -0.991166 -0.231405 0.535033 0.021040 -0.088741 0.332192 0.416318 0.948798 -0.163837 -0.961213 0.596164 0.475076 -0.614747 0.144914 -0.475322 0.495975 -0.851670 -0.845420 -0.961339 0.435037 0.590784 0.299939 -0.601817 0.179006 -0.662779 0.593037 0.427833 0.803449 -0.116354 -0.146482 -0.880112 0.622430 0.298670 -1.173489 0.242129 0.744877 0.619516 -0.803356 -0.773368 -0.010236
be 1.390265 -0.357478 -0.067163 -0.147393 1.737726 -1.065133 -0.588930 0.366360 0.236819 0.233720 0.213908 -0.712478 -0.039818 -0.198207 -0.608648 -0.982185 -0.128882 0.391595 -0.682738 0.671582 -0.311116 0.183955 -0.264499 -0.237404 -0.853561 -0.741294 -0.130954 0.017005 0.050820 -0.588134 1.187477 -0.002885 0.553796 -0.322866 -0.100631 -0.249908 0.255322 0.455767 0.446754 1.253234 -0.414472 -0.459508 -0.024033 -0.310912 -0.578116 1.297550 0.386616 -0.124401 0.403189 -0.654612
right 0.233584 -0.381463 1.181050 -0.226274 0.731831 0.155710 -0.345172 -0.551818 0.096262 -0.105256 0.060999 -1.205606 -0.167057 -0.592519 -0.618533 -1.206681 0.018097 -0.331118 0.338158 0.025142 0.724652 -0.597840 -0.012287 -0.248989 0.096080 0.612407 -0.379803 -0.530126 -0.712463 -0.335871 0.599231 0.417679 -0.409529 -0.303335 -0.327317 0.572436 0.609382 0.856060 0.579591 0.369112 -0.673813 -0.204610 0.744690 -1.716423 -0.277004 0.647299 -0.106948 0.891501 0.358723 -0.113492
we 0.719320 -0.868717 -1.527411 -0.885971 0.406488 -0.075601 0.769089 -0.094396 0.682550 0.981184 -0.021076 -0.875061 -0.052673 -0.060259 -0.639422 -0.323902 -0.718684 -0.046988 0.113928 0.050408 0.830567 0.454779 -0.812061 -0.163598 0.258548 0.250295 -1.194763 -0.252615 -0.325966 -0.108453 1.089444 0.368843 0.926912 0.507052 -0.231956 0.744461 0.181663 -0.018811 0.468241 0.331415 -0.661105 -0.761593 0.286112 -0.895529 0.329453 0.952712 -0.694895 -1.113850 -0.241772 -0.284396
what -0.109661 -0.394105 -0.046327 -0.108313 0.329235 -0.019959 -0.483493 0.786638 0.097553 -0.049150 -0.832280 -0.799608 0.571961 -0.218080 -0.075150 -0.131487 0.092550 -0.100254 0.191476 0.042409 0.758679 0.255659 0.466051 -0.194942 -0.631545 -0.426967 -0.584498 -0.775203 -1.418049 0.059614 0.275268 0.953314 0.695784 0.333511 0.196617 1.149249 0.064827 -0.723971 0.294062 0.206890 -0.710566 -0.375570 -0.029153 -1.558323 0.196269 0.753166 -0.318573 -0.530937 0.402067 -0.456278
are 0.214608 -0.290229 -0.192911 0.166467 0.773519 -1.667215 0.154928 0.988366 0.415259 0.147219 0.068658 0.373154 0.447734 0.615712 -0.457801 -0.761038 0.126172 0.606632 -0.111126 -0.793378 0.600308 0.727685 -0.842455 -0.549851 -0.162282 0.498987 -0.366998 -0.858003 -1.507623 -0.314428 0.146680 0.721073 0.845573 -0.177063 0.140879 -0.119361 0.285095 0.088308 0.530200 -0.131674 -0.034488 -0.406028 -0.215099 -1.471671 0.440773 1.248212 -0.212815 -0.232853 0.753366 -0.295123
Well 0.162031 -0.333310 -0.256348 -0.580787 0.796062 -0.284993 0.068418 0.261690 -0.066197 0.622265 0.056650 -0.653950 0.648834 0.224280 -0.386738 -0.059047 0.335113 -0.026929 -0.372997 0.041967 0.480541 -0.375398 0.058990 -0.812388 -0.675165 -0.569137 -0.186277 -0.218048 -0.656308 0.181526 0.412673 0.217830 0.016455 0.244033 0.225055 0.879520 0.806869 -0.239554 0.441314 0.468643 -0.362545 -0.532087 0.267519 -0.836685 0.535028 0.759455 0.273441 -0.204761 -0.179663 -0.457278
so -0.128187 -1.359401 -0.170272 -0.334380 0.891125 -0.630370 -0.298087 0.001353 1.114046 0.786444 -0.271555 -0.384355 -0.005750 -0.087002 -0.474189 -0.260316 0.141047 0.473523 -0.305369 0.546423 0.397790 -0.237756 -0.347328 0.304214 -0.528355 0.353460 -0.593549 -0.697375 -0.657263 -0.097234 0.684739 0.353363 0.483696 -0.959726 -0.468949 0.423013 0.274061 -0.260016 0.525213 0.442850 0.095808 -1.037237 -0.065647 -0.218128 1.002911 0.746506 0.116074 0.596252 -1.040084 -0.058157
What 0.270555 0.278511 0.098574 -0.185888 1.063526 -0.370868 -0.213654 0.690959 0.586295 0.091434 -0.993675 -0.082942 0.057004 0.612991 0.072003 -0.414018 0.366001 0.393192 -0.157541 -0.896211 0.775203 0.505631 0.086073 -0.428924 -0.489441 -0.275434 -0.345401 -0.183877 -1.441125 0.561480 -0.447280 0.388004 0.864664 -0.525676 -0.262871 0.538346 -0.016024 -0.186184 0.133855 0.128052 -0.034525 0.166621 0.012481 -1.174626 0.564000 0.594476 -0.452381 -0.185759 0.409413 0.191738
your -0.028058 -0.100321 0.834661 -1.216038 0.080496 -0.404486 0.540799 -0.247508 -0.022939 0.118542 -0.852884 -0.078112 -0.711438 0.386316 0.640725 -1.441162 0.735296 -0.084449 -0.390335 -0.300650 -0.441259 0.769641 0.470236 -1.245424 -0.533233 -0.284939 -0.212052 0.084706 -0.716485 -0.012503 0.193651 -0.239877 0.172413 -0.651343 -0.286114 0.187688 -0.098075 0.307884 1.125743 -0.724990 -0.274409 -0.446051 0.124671 -0.393175 0.180822 0.887031 0.320769 0.337841 -0.839969 -0.863037
gonna 0.246021 -0.590790 -0.109534 -0.367019 1.351329 -0.066282 -0.549453 0.839285 -0.377713 0.486775 0.056518 -0.730046 -0.626580 -0.729775 -1.800989 -0.651996 0.750902 0.045394 0.052715 0.305408 0.302963 -0.218201 -0.082380 -0.860701 0.174047 0.259237 -0.874590 0.048810 -0.364535 0.084831 0.106603 0.066974 -0.107608 -0.388366 0.205982 0.087657 -0.074736 -0.209987 -0.038314 0.660300 0.095321 0.022168 0.429598 -0.971232 0.184443 1.417926 0.214290 -0.225559 0.308092 -0.313669
like 0.374804 -0.362635 0.427965 -1.328648 0.367668 -0.320722 -0.671489 0.229935 0.514971 -0.037305 -0.027810 -0.688825 0.279152 0.225520 -0.683710 -0.342293 0.150680 0.046410 -0.792498 0.242371 -0.537746 -0.110081 0.712171 -0.218363 -0.822143 0.037503 -0.354936 0.461254 -1.148821 -0.550609 0.376980 0.182873 -0.211990 0.003671 0.212157 -0.206005 0.639417 0.005874 0.454426 0.670374 -0.139158 -0.104653 -0.755209 -0.592024 -0.161802 1.078168 0.143085 -0.015333 -0.480464 0.218818
out 0.729580 -0.406024 -0.513559 0.056939 0.210184 -0.294653 0.707716 0.605938 0.909225 0.131033 -1.009844 -0.550373 0.199619 -0.298290 -0.644228 -0.883975 0.415277 -0.581059 -0.231945 0.633003 0.209701 -0.243101 0.436150 -0.641919 -0.122492 0.649984 -1.327263 -1.222965 -1.031672 0.280977 -0.270276 -0.075708 0.464513 -0.314330 -0.304193 0.668463 0.853903 0.449102 -0.072402 0.364001 -0.531868 0.475806 0.936954 0.246395 -0.177170 0.919816 0.049789 -0.465421 -0.160864 0.288447
go 0.674020 -0.687284 -0.250140 -0.060714 0.174256 0.343126 0.543459 -0.295399 0.451008 1.253426 -0.350502 -1.895365 -0.675697 -0.712471 -1.046620 -0.942945 0.192529 0.226688 0.212996 -0.307208 0.208754 -0.027340 -0.170976 -0.365386 0.478040 0.200112 -0.744778 -0.393017 -0.057110 -0.346601 0.669728 -0.093105 0.080964 -0.265254 -0.274352 0.302302 0.673987 0.665587 0.100231 0.136985 -0.742598 0.264979 0.592747 -0.997078 -0.087425 0.989597 -0.115974 -0.217752 -0.076620 -0.105402
get 0.764021 -0.748933 -0.733190 -0.392156 0.589275 -0.024472 0.382921 0.056795 0.403393 0.869837 0.120233 -0.741842 -0.404213 -0.177949 -0.493696 -0.349827 0.113320 0.158232 -0.149930 -0.242123 0.085262 -0.098610 -0.289150 -0.098788 0.002769 0.286653 -1.309918 0.461716 -0.479076 -0.447961 0.373933 0.211407 0.582814 -0.522174 -0.376137 0.696954 0.031788 0.684278 -0.248713 0.422676 -0.387558 0.027481 0.368951 -0.467815 -0.130711 1.040336 -0.016017 -0.763022 0.104268 -0.437997
don't 0.358164 -1.228890 -0.668375 -0.862654 0.568617 0.423194 0.032097 -0.494912 -0.125968 0.443995 -0.230032 -0.383085 -0.250984 0.209438 0.193685 0.164996 0.433804 0.299737 0.170283 -0.593658 1.295800 0.606142 -0.024193 -0.994414 -0.353590 0.552285 -0.077045 0.198261 -0.868179 0.352200 0.843609 0.861081 0.133618 -0.030609 0.147411 0.770096 -0.184028 -0.047034 0.559539 0.975003 -0.374142 0.119455 0.482379 -0.888162 -0.132517 1.012633 -0.069004 -0.573548 0.374484 -0.623543
about -0.227372 -0.806032 -0.608751 -0.192737 0.306147 0.043769 -0.804770 0.976686 0.347534 -0.087829 -0.288674 0.327313 -0.076444 -0.425648 0.187151 0.588449 -0.649837 -0.141420 -0.119422 -0.055189 0.645275 0.567215 0.654425 -0.066282 -1.643824 0.508590 0.050323 -0.263235 -1.373353 -0.047759 0.610909 0.846919 0.712579 -0.063826 0.310906 0.137282 0.595444 0.658620 0.817802 0.245152 -0.913091 0.106769 -0.070182 -1.239777 0.439285 0.679219 -0.212083 -0.125398 0.104839 -0.586281
here 1.112382 0.385809 -0.147736 0.218405 1.107102 -0.213181 0.196264 0.323848 0.084550 0.677083 -0.345466 -0.177602 -0.076730 0.484041 -0.017552 -1.085800 0.471063 0.012132 0.068975 -0.377309 0.843722 -0.661617 -0.444019 -0.466862 -0.188982 0.724087 -0.758465 -0.577160 -0.859611 0.363958 0.530495 -0.272295 0.018971 -0.026567 0.167550 0.277083 0.094035 0.538792 0.661892 0.532862 -0.975502 0.423030 0.442201 -0.372038 0.173989 0.906475 -0.639588 -0.110733 0.260900 0.471107
up 0.714557 -0.530092 0.181757 0.017598 0.349333 0.117065 0.434256 0.193747 0.799740 0.269266 0.002294 -0.283200 0.076777 0.152806 -0.918655 -0.659431 0.888793 -0.234487 0.537353 -0.160870 -0.064132 -0.124999 0.172183 -0.438206 -0.163617 0.706587 -0.678583 -0.706405 -1.274093 0.803235 0.130068 -0.430925 -0.281307 0.287701 -0.291358 0.563942 0.592162 0.480503 -0.412708 0.360113 -0.792739 0.606876 0.212589 0.627193 0.542830 1.105103 -0.669452 -0.896744 -0.010414 0.770725
think 0.203018 -1.212636 -0.453106 -0.651141 0.395652 -0.486450 -0.056514 -0.230962 0.524663 0.576997 0.071936 -0.499234 0.099865 0.131344 -0.199064 0.124547 0.133617 0.273328 -0.115370 -0.099966 0.241305 -0.118243 0.170399 -0.730284 -0.219984 0.466725 -0.683449 0.220778 -0.735142 0.011556 0.677616 0.839357 0.100998 -0.347648 -0.250106 0.343702 -0.005654 -0.113619 0.353513 1.300545 0.054915 -0.246817 -0.070637 -0.752079 0.127707 1.176622 -0.001534 -0.397994 -0.226108 -0.245057
Im 0.396736 -0.675092 0.031416 -0.082116 0.428433 0.217078 -0.736696 0.830217 -0.199710 0.728730 -0.240282 -0.008260 0.174221 -0.934813 -0.549076 -0.379098 0.185571 0.469975 -0.288595 0.403573 1.206768 -0.659276 -0.544519 -0.691830 -0.538138 0.701728 -0.886752 -0.248972 -0.193114 -0.002246 -0.514540 0.890288 -0.126520 -0.706249 0.507696 -0.324051 0.676378 -0.315570 0.988353 0.271975 -0.250045 -0.288056 0.122010 -0.798766 0.525168 0.791457 -0.205581 0.535570 -0.588798 -0.322415
all 0.521766 -0.353296 0.319949 -0.182213 0.360622 -0.258153 0.186238 0.109927 0.198913 -0.494157 0.404959 -0.697380 0.197489 -0.015955 -0.018537 -1.160633 -0.643928 -0.796901 -0.270058 0.128858 0.609384 -0.520288 0.138612 -0.242754 -0.229392 0.226762 -0.395433 -0.259262 -0.848758 -0.390157 0.701181 0.980767 0.219258 -0.583469 -0.268972 0.409128 0.705520 1.137337 0.455392 0.356254 -0.448864 -0.344177 0.287609 -0.710618 -0.097945 1.105755 -0.044274 0.018480 0.202670 -0.131572
can 0.604468 -0.479509 -0.755428 -0.867524 0.256613 0.007720 0.810069 0.205597 0.490074 0.791321 -0.498804 -1.352315 -0.165672 0.204655 0.121647 -0.054680 0.199207 -0.333764 0.116666 -0.678921 0.128496 0.424203 0.384195 -0.597548 -0.013362 0.387916 -0.783708 0.206155 -0.142368 -0.443621 0.814463 0.001289 -0.061481 -0.104396 -0.485334 0.772508 0.122223 0.617837 0.213800 0.282753 -0.422520 0.096334 0.447681 -0.556546 0.234801 0.951916 -0.428608 -0.557241 -0.354755 0.174800
but 0.173967 -0.680170 -0.139020 -0.705000 0.128791 0.128135 -0.101498 0.034660 -0.052404 0.358793 -0.156214 -1.095158 0.488215 -0.280979 -0.210093 -0.275792 0.247281 0.249670 -0.387305 0.332124 0.491537 -0.646255 0.430711 -0.425642 -0.932768 -0.242378 -0.520890 -0.091263 -0.422043 -0.335623 0.357547 0.506943 0.079105 -0.629751 0.055885 0.707894 0.370836 -0.005467 0.612012 0.577679 -0.266089 -0.511700 -0.014306 -0.290903 0.235877 0.627285 -0.182829 -0.406254 -0.459062 -0.394484
So 0.207520 -0.486410 0.019853 -0.301893 0.518007 -0.436866 -0.349398 0.651135 -0.133827 0.545175 -0.394604 -0.165858 0.519984 -0.270961 -0.481736 -0.259231 0.413431 0.318810 0.167655 -0.299904 0.185256 0.269570 0.015187 0.060262 -0.318165 -0.147627 -0.727020 -0.738844 -0.601643 -0.068218 0.666055 0.154675 0.116212 0.302144 -0.279250 0.875691 0.602431 0.257034 0.291848 -0.207545 -0.689777 -0.319013 0.063927 -0.918064 0.044117 0.882651 0.378146 -0.145647 -0.255654 -0.460023
her 0.452919 -0.273313 0.239179 -1.326363 0.129273 0.177503 0.114110 -0.190725 0.237703 0.003306 -0.513369 -0.914085 -0.451328 -0.643966 -0.484026 -0.918642 0.797070 -0.316603 -0.048300 -0.732059 -0.372119 -0.226582 0.981212 -0.676267 -0.010100 0.047713 -0.091935 0.592385 -1.262601 -0.545755 -0.518929 0.206325 0.273178 -0.950968 -0.101846 0.605645 -0.200359 0.251239 0.312118 0.668357 -0.168245 0.272259 0.054175 -0.079573 0.468012 0.301908 0.160845 0.027828 -0.154150 0.063167
no 0.952896 0.144753 0.674405 -0.260442 0.559162 0.100237 0.634674 -0.842085 -0.147979 -0.031137 -0.498296 -1.183127 0.433348 0.073547 0.447323 -0.270822 -0.392754 0.461604 -0.007473 -0.956052 1.240310 -1.288280 -0.439902 -1.225017 -1.243124 -0.494225 -0.546286 -0.008410 -0.014040 0.039173 -0.708933 0.393804 0.110479 -0.184806 -0.707458 0.076134 0.519363 -0.771633 0.508493 0.436120 0.209786 0.099391 -0.116539 -0.575800 0.776437 0.633468 -0.325472 -0.987002 0.517837 0.130529
at -0.023175 -0.190763 0.227227 -1.062218 0.993069 0.357031 0.106565 0.876144 -0.598527 0.154165 -0.219132 -0.230323 0.587337 0.560755 -0.900022 -0.819296 0.144872 -0.701436 -0.848027 -0.480922 1.294050 0.599281 -0.073486 0.236996 -0.117013 0.265115 -0.437860 -0.016966 -0.914852 -0.881010 0.557365 -0.048781 0.286494 -1.328440 0.095246 0.062100 0.414594 0.721374 1.013612 0.735714 -0.300175 0.301036 -0.197833 0.072258 0.313569 -0.042238 -0.398586 -0.073026 -0.938064 0.012239
really -0.258255 -1.272682 -0.029380 -0.362371 0.161015 -0.057828 -0.834234 0.134670 0.749955 0.410032 -0.260609 -0.836013 0.158832 -0.422669 -0.543771 0.135641 -0.483781 1.049907 -0.605810 0.494621 0.155781 -0.085858 0.579582 -0.090273 -0.657330 0.026074 -0.500269 0.080244 -0.708477 -0.077143 0.629896 0.631611 0.497896 -0.388793 0.031968 -0.215925 0.571691 0.137726 0.100489 1.008707 -0.114088 -0.518530 -0.449330 -0.293718 0.116795 1.060914 -0.060044 -0.228002 -0.155877 -0.019080
got 0.311147 -0.444472 0.019361 -0.417355 0.295989 -0.037219 -0.033791 -0.544552 0.015410 0.154372 0.294349 -0.310088 0.304977 1.038880 -0.841472 -0.373333 0.202078 0.161925 -0.588933 0.209892 0.029415 -0.828582 -0.160680 -0.103927 -0.467278 -0.138324 -0.868384 0.280887 -1.176809 0.530276 0.375921 -0.419581 -0.299521 0.442270 -0.185250 0.346770 0.088180 0.321325 -0.150395 0.159961 -0.642518 -0.195053 0.060166 -0.826868 -0.002620 0.532665 -0.192488 -0.653913 -0.081955 -0.649117
And -0.191748 -0.406195 -0.218918 -0.343182 0.949560 -0.181514 -0.300081 0.139034 -0.037808 0.081501 -0.094227 -0.889232 -0.049989 0.155535 -0.396155 -0.535726 0.336870 -0.395928 -0.172750 0.490856 0.102072 -0.477819 0.256702 -0.423398 -0.365859 -0.323347 -0.487453 -0.337169 -0.519369 -0.188738 0.617484 0.256841 -0.212322 -0.343207 -0.036515 0.929889 0.045243 0.385451 0.259684 0.094176 -0.105236 -0.404822 0.125511 -0.456389 -0.049175 0.453835 0.023584 -0.174329 -0.322470 -0.388425
one 0.085491 -1.345309 0.042343 -0.030486 0.578551 0.314824 -0.161529 -0.538198 0.085597 -0.125168 0.037454 -0.548034 0.122056 0.599378 -0.342455 -0.483225 -0.509490 -0.955779 -0.571147 -0.487491 0.786568 -0.533920 0.029843 0.026833 -1.010109 0.144954 -0.818101 -0.122947 -0.202208 -0.221708 0.039189 0.457217 0.280999 0.315055 -0.958469 0.242989 -0.236261 0.017832 -0.589425 -0.090973 -0.409616 -0.064868 0.235713 -0.615407 0.481698 0.853241 -0.820265 -0.196198 0.730153 0.101338
there 0.932571 0.234370 0.162313 -0.008922 0.860549 -0.774653 0.068473 0.146737 0.604040 0.327263 -0.116624 -0.913832 -0.206010 -0.161159 -0.340991 -0.882085 -0.289992 0.311089 -0.145470 -0.336055 -0.177390 -0.738210 -0.043858 -0.281343 -0.368812 -0.062351 -0.611210 -0.475052 -0.750224 -0.036101 0.688321 -0.181623 -0.061004 0.596131 -0.447105 0.699522 0.873774 0.534948 0.194316 0.400407 -0.674057 -0.035188 -0.277717 -0.565485 -0.143182 0.745021 -0.191634 -0.363933 0.092565 0.527778
mean 0.519255 -0.361955 0.538698 -0.724531 0.245698 -0.508357 -0.413655 0.429171 0.057800 -0.381785 -0.599583 -0.171750 0.766655 -0.112558 0.030839 -0.010928 -0.071150 0.167281 -0.550057 -0.018598 0.628059 -0.296072 0.692604 -0.811632 -0.771495 -0.003407 0.012027 0.279491 -0.536350 -0.024406 0.506680 0.867256 -0.091536 -0.282548 -0.119052 0.554501 0.161071 -0.270004 0.455776 1.166231 0.119107 -0.176270 -0.530579 -0.362895 -0.118373 1.100762 0.236506 -0.521220 -0.366159 0.133375
he 0.026579 -0.038426 -0.564875 -1.213612 -0.097162 -0.068954 -1.036510 0.527323 0.082385 0.303987 -0.107338 -1.499768 -0.017671 -0.689458 -1.172664 0.298249 0.117715 0.125675 -0.171481 -0.463538 -0.431306 -0.395669 1.254296 0.355833 -0.199212 -0.652385 -0.534042 -0.317384 -1.269643 -0.257800 0.473834 -0.226894 0.229619 -0.276248 -0.166659 1.554134 0.165165 -0.117312 0.381240 0.443697 -0.107151 0.168798 -0.544557 0.272468 0.305502 -0.417218 -0.345665 -0.104658 -0.480005 0.689356
if 0.442121 -0.633380 -0.699282 -0.565355 0.326672 -0.287206 -0.203239 0.449856 0.037241 0.500237 -0.359955 -0.659751 0.342629 -0.241178 -0.789612 0.152648 0.064608 -0.162171 -0.105844 -0.011250 0.581080 -0.043224 0.346817 -0.397917 -0.342688 -0.072262 -0.367724 -0.264452 -0.482643 -0.187512 0.890270 0.713015 -0.123795 -0.001547 0.287568 1.140595 0.288607 -0.427497 0.400855 0.498843 0.001260 -0.070109 -0.175679 -0.637909 -0.314639 0.726407 -0.086390 -0.514303 -0.212875 -0.119041
him 0.315048 -0.629362 -0.217349 -1.155684 0.423282 0.619951 -0.355268 0.258442 -0.065641 0.523649 -0.017705 -0.583810 -0.295886 -0.696089 -0.994455 -0.291963 0.849556 -0.131290 -0.291917 -0.486331 -0.157446 0.097653 0.526398 -0.248518 -0.007581 0.374744 0.029067 0.360398 -0.959106 -0.326587 0.084120 -0.213561 0.071841 -0.535831 -0.175764 0.489309 -0.150610 0.307128 0.304891 0.657036 -0.549141 0.622656 0.327733 0.183997 0.504025 0.747611 0.222888 0.072178 0.001315 -0.157524
Ross 0.198608 -0.125048 0.383408 -0.283540 0.898287 0.594391 -0.257406 -0.404821 0.391757 0.406836 -0.951362 -0.460493 -0.504703 -0.200590 -0.257699 -0.039973 0.523494 0.442603 0.510705 -0.201058 0.540181 -0.137166 -0.214633 -0.174380 -0.036039 0.232929 -0.578858 -0.212207 -0.994769 0.415252 0.214022 0.143110 -0.005128 -0.318910 -0.112797 0.639329 0.123752 0.094659 0.208224 0.436282 -0.343554 0.061259 0.153373 -0.374727 0.175568 0.272411 0.353150 -0.505326 -0.730912 0.178714
want 0.627308 -1.186603 -0.548847 -0.840202 0.341002 0.549243 -0.160434 -0.072490 0.050468 0.472770 -0.222620 -0.742849 -0.183252 -0.028316 -0.368846 0.059118 0.407736 0.506278 -0.365912 -0.587995 0.364530 0.295595 0.675459 -0.816857 -0.407717 -0.013882 0.037679 0.197823 -0.844417 0.076411 0.270026 0.304195 0.344633 -0.367764 -0.328373 0.675155 -0.122631 -0.080357 -0.025832 1.027048 -0.076549 0.636835 0.186444 -0.241266 0.139442 0.756035 0.095873 -0.609333 0.641339 -0.209970
All -0.077723 -0.374282 0.769097 -0.101619 0.406244 0.219481 0.108166 -0.644531 -0.013305 0.019393 -0.122279 -1.059340 -0.088398 -0.314940 -0.257773 -0.988683 -0.218453 -0.388948 0.228617 -0.078742 0.901307 -0.120572 -0.082424 -0.269186 0.276031 0.516646 -0.255575 -0.569684 -0.349730 -0.286661 0.719301 0.526982 -0.262116 -0.148391 -0.513289 0.329978 0.427007 0.651419 0.505869 0.172541 -0.509949 -0.215277 0.721684 -1.489066 -0.251456 0.413829 -0.029625 0.856367 0.222282 -0.256838
it's 0.064228 -0.639005 0.317927 -0.607881 0.833931 0.115777 -0.250181 -0.161425 -0.394008 -0.001952 0.105969 -0.237570 0.560232 -0.695636 0.206071 -0.375381 -0.021281 0.664386 -0.358053 0.346305 0.630164 -0.581852 -0.460539 -0.669368 -1.208611 0.148609 -0.751563 0.104504 0.003682 -0.045430 0.355196 0.543108 0.039284 -0.065133 -0.296957 0.288716 0.498887 -0.149971 0.693463 0.762547 0.047966 -0.811562 -0.298081 -0.441212 0.027318 0.739484 0.539918 -0.002258 -0.430820 -0.487814
uh 0.262527 -0.299970 -0.373301 -0.459761 0.374904 -0.013112 0.154657 -0.267121 0.196281 0.240525 -0.179345 -0.725858 0.750016 0.159144 -0.083991 0.191403 0.069974 0.183045 -0.063900 0.196756 0.287423 -0.166308 0.091806 -0.418853 -0.624069 -0.352413 -0.529735 -0.581080 -0.654178 0.207567 0.443234 0.302500 -0.515740 0.394846 0.007792 1.031171 0.732297 0.280317 0.032708 -0.155939 -0.613318 -0.261156 0.191017 -0.656521 0.330439 0.320638 0.241333 -0.655518 -0.467893 -0.540383
see 0.442534 -0.337654 0.131505 -0.480516 -0.038474 -0.082088 0.132170 -0.223745 -0.387126 0.705629 0.098439 -1.202737 0.408366 -0.415695 0.358618 -0.573798 0.271375 -0.064825 0.291402 -0.898145 0.249207 0.425046 -0.042291 -0.410227 -0.368730 -0.008769 0.163601 -0.042531 -0.223648 -0.670675 0.758556 0.594326 0.096460 -0.243763 -0.611643 0.714819 0.202415 0.410822 0.432061 0.060635 -0.478036 -0.051271 0.227867 -0.858614 0.174320 0.796069 -0.261631 0.175425 0.212640 -0.516980
God 0.044935 -0.365287 1.023356 -0.253416 0.291016 0.138232 -0.380771 -0.544688 1.052769 0.485092 -0.583376 -0.763036 -0.800205 0.031146 -0.347958 -0.150869 0.628885 0.999825 0.211205 -0.364831 0.374750 0.106656 -0.614889 -0.050966 -0.405537 -0.416571 -0.058755 -0.468251 -1.771636 -0.008968 -0.663632 0.103210 0.750870 -0.821493 0.300568 0.487240 0.668594 -0.331182 0.886091 -0.343927 -0.438692 -0.020597 -0.191201 -0.619597 0.697419 0.152498 -0.120355 -0.029943 0.095353 -0.282640
now 0.311112 -0.221258 0.441930 -0.023956 0.720420 -0.271428 -0.165345 -0.392663 0.115352 0.086137 -0.134084 -0.762849 -0.066173 0.034131 -0.441017 -0.466231 0.351786 0.120163 0.278515 0.244309 0.265341 -0.565979 0.243510 -0.499292 -0.153005 0.101783 -0.291714 -0.385797 -0.654101 -0.011220 0.522987 0.265441 -0.370075 -0.431892 -0.222799 0.476286 0.200451 0.363743 0.194226 0.380790 -0.410063 -0.114877 0.331644 -0.895468 0.199071 0.385576 -0.180609 -0.159211 -0.201793 -0.210343
Joey 0.320099 0.218730 0.337039 0.336263 1.198657 -0.207600 -0.323928 -0.317738 0.837896 -0.047778 -0.823784 -0.600584 -0.470478 -0.040871 -0.466085 0.134005 0.913069 0.243396 0.009834 -0.586290 0.325054 -0.139489 -0.413605 -0.610282 -0.270500 0.144969 -0.459534 -0.278043 -0.970444 1.107495 0.024124 0.363101 -0.881121 0.022805 -0.087385 0.875871 -0.505719 0.001649 -0.495580 0.059696 -0.089148 0.551289 0.573993 -1.017846 0.475934 0.488256 0.436009 -0.630159 -0.356957 0.087536
tell 0.264800 -0.365318 -0.499601 -0.853503 0.107740 0.308047 -0.288432 0.100119 0.085615 0.317666 -0.271907 -0.901464 0.038934 -0.761116 -0.507221 0.047333 0.973987 -0.428678 -0.013616 -0.758403 0.184112 0.742629 0.106870 -0.304164 -0.577789 0.015725 0.187181 0.307893 -0.792936 -0.339766 -0.022709 0.228336 0.725328 -0.067629 -0.234039 0.452274 -0.010526 0.013325 0.180486 0.386218 -0.673443 0.546694 0.654765 -0.707113 0.459915 0.827364 0.276308 0.206569 0.712768 -0.514005
sorry -0.111755 -0.987150 0.033897 0.009916 0.230895 0.517734 -0.240413 0.151544 0.558332 0.974194 -0.626294 -0.311261 -0.131021 -0.745925 0.113786 0.151582 0.331157 0.795299 -0.038609 0.508542 1.209529 -0.192748 -0.696964 -0.433253 -0.584439 0.536715 -0.786399 -0.165426 -0.422038 0.147594 -0.337893 0.902089 0.262934 -0.826215 0.277294 0.046995 0.302539 -0.035990 0.921993 0.130989 -0.738047 -0.473202 0.394832 -0.788570 0.560695 0.489636 -0.495885 0.215087 -0.713261 -0.480164
were 0.466431 -0.086601 -0.768065 -0.693304 -0.185981 -0.737653 0.075488 0.824767 0.302856 0.008726 0.296916 0.064852 0.616295 -0.126927 -0.718125 -0.285657 -0.283341 0.316256 -0.044482 0.045219 0.575527 -0.086367 -0.513506 -0.451663 -0.081119 0.109438 -0.758526 -0.612146 -0.918394 0.009135 0.125747 0.860563 0.412249 0.225312 0.478912 0.429321 0.484186 -0.605962 0.770049 -0.181013 -0.096985 -0.478831 -0.483265 -0.951295 -0.246845 0.468651 -0.508469 -0.499821 0.133931 -0.080764
guys 0.675183 -0.214603 0.034915 0.167195 0.048489 -0.925649 0.135291 0.219094 0.782807 0.428653 -0.170996 -0.237383 0.568503 0.805998 -0.426983 -0.253131 0.388551 0.469862 -0.265205 -0.553514 0.236522 0.558744 -0.536478 -0.150053 -0.018106 0.480528 -0.408967 -0.499658 -0.813322 -0.076213 0.505205 0.535770 -0.156208 -0.097368 -0.204969 -0.297467 0.287155 0.285428 -0.100023 -0.125027 -0.723325 0.362592 0.016161 -0.876457 -0.018449 1.208875 -0.158965 -0.772220 -0.028255 -0.155718
how -0.123295 -0.366853 -0.432663 -0.528039 -0.083255 -0.434092 -0.804742 0.475189 0.069047 0.541435 -0.760801 -0.498672 0.450266 -0.274578 0.048098 0.837544 0.029829 0.385149 0.101620 -0.755364 0.288035 0.618166 0.469973 0.436900 -0.625271 0.089864 -0.249152 -0.609062 -0.871212 -0.306206 0.962130 0.659417 0.157096 -0.118892 -0.288460 0.948571 0.502939 0.418540 0.489709 -0.220707 -0.522318 -0.216956 -0.032082 -0.604409 0.497449 0.422248 0.375712 -0.176172 -0.600182 -0.277886
okay 0.239586 -0.329255 0.571556 -0.347159 1.047511 0.285972 0.243420 -0.347486 -0.072171 0.535006 -0.065760 -0.902627 0.463677 -0.241414 0.248478 -0.572204 0.044079 0.577571 -0.036785 0.234140 0.408160 -0.071623 -0.362815 -0.607707 -0.441640 0.037841 -0.463712 -0.299824 -0.026432 -0.180710 0.418207 -0.033798 -0.092551 0.305535 -0.190531 0.271484 0.777732 0.413413 0.547791 0.703493 -0.518362 -0.502360 0.341058 -0.987540 -0.099033 0.447626 0.185059 0.427747 -0.089230 -0.340166
did 0.121376 -0.096954 0.044235 -0.351171 -0.224248 -0.574809 -0.634776 0.567446 0.775800 0.407779 -0.749737 -0.565556 0.191078 -0.147318 -0.311028 0.349241 0.250751 0.727165 0.094205 -0.692991 -0.087265 0.910024 0.180612 0.050069 -0.170636 -0.619391 -0.288339 -0.571625 -1.322023 0.175340 -0.145326 0.276447 0.746111 0.013123 -0.411753 1.182805 0.355875 0.053080 0.089312 -0.528187 -0.592958 0.245111 0.048240 -0.877866 0.008475 0.588356 0.045629 -0.295108 0.051513 0.057381
look -0.022354 -0.203587 0.701768 -0.844327 0.660702 0.559153 -0.192045 -0.227156 -0.250190 0.371960 -0.267055 -1.195049 0.665595 0.385104 -0.431092 -0.148606 0.244799 -0.119361 -0.567178 -0.423996 1.126639 0.420699 0.087390 0.336401 -0.019290 0.245714 -0.207916 -0.211032 -0.621283 -0.758880 0.779625 0.084332 -0.467215 -0.652987 0.029822 0.218517 0.529676 0.312886 0.867380 0.911783 -0.413812 0.190182 -0.106407 -0.716450 0.207077 -0.147074 -0.207576 0.488352 -0.682892 0.193080
you're -0.036581 -0.547705 0.429568 -0.347149 0.993922 -0.005314 -0.961364 0.880293 -0.268788 0.112845 -0.146777 0.243702 -0.289584 -0.595195 -0.795884 -0.141267 0.553256 0.248240 0.078874 0.575654 0.565027 -0.081174 -0.288450 -0.398824 -0.133541 0.531328 -0.657682 -0.295703 -0.548013 0.234639 -0.064263 0.084917 0.067128 -0.060499 0.587619 0.428652 0.124285 -0.462612 0.594622 0.648982 0.067264 -0.253188 0.303057 -0.691038 -0.259816 0.879089 0.123693 0.547438 0.135148 -0.263954
going 0.079102 -0.415841 0.119535 -0.382804 0.849035 -0.523587 -0.287578 0.861276 0.007570 -0.343620 -0.667414 0.235232 -0.575624 -0.198489 -0.798477 -0.940457 0.279747 0.490801 -0.436452 0.421643 0.389308 0.659043 -0.032398 -0.668548 -0.053855 0.702608 -1.242068 -1.011604 -0.668850 0.526107 -0.313531 -0.520351 0.369127 0.148094 0.046700 0.169823 0.352746 -0.158006 0.215542 0.223405 -0.068026 0.150754 0.471089 -0.694805 -0.108458 0.498947 0.559575 -0.135453 -0.022076 -0.195309
But 0.091829 -0.420191 -0.092169 -0.675608 0.424893 -0.004544 0.264163 -0.130601 -0.411719 -0.078798 -0.006800 -0.794034 0.592096 -0.470185 -0.009347 -0.330907 -0.215602 -0.086717 0.039238 0.076782 0.724816 -0.276581 -0.065607 -0.412800 -0.660553 -0.050282 -0.561963 -0.034240 -0.031901 -0.446500 0.323482 0.536387 0.411520 0.041927 -0.167716 0.542849 0.414753 -0.263887 0.703881 0.439407 -0.158515 -0.697064 0.110141 -0.622027 0.244411 0.478427 -0.072787 -0.189201 -0.039767 -0.425903
she 0.408856 -0.267205 -0.496792 -0.851874 0.092118 -0.293934 -0.268541 0.322466 0.716920 0.338163 -0.237058 -0.574018 -0.043272 -0.632241 -0.640335 0.028815 0.067283 0.171330 -0.307086 -0.862452 -0.443055 -0.382450 0.769092 -0.263337 -0.143863 -0.603186 0.080059 -0.092434 -1.478328 0.149052 -0.198429 0.201321 0.433967 -0.281225 -0.247696 1.102600 -0.025445 -0.248119 0.064124 0.846453 -0.140609 0.142528 -0.431347 0.044339 0.381203 -0.573734 -0.446960 -0.077184 -0.368802 0.780025
Hi 0.214651 0.644647 0.341686 0.662707 0.624778 0.009441 -0.276219 0.078296 0.720904 1.071462 -1.276697 -0.470824 0.121637 -0.069829 0.376090 0.047727 0.714166 0.718253 0.034128 -0.659566 0.504001 0.589249 -0.461080 0.007197 -0.074904 -0.045890 -0.182126 -0.680454 -0.800661 0.425079 0.241526 -0.038241 -0.154734 0.159422 -0.041260 -0.073051 0.161601 0.727035 -0.259563 -0.175568 -1.510393 0.406263 0.347709 -1.082767 0.343611 0.160945 0.633357 -0.189992 -0.512859 -0.048182
good -0.536590 -0.669068 1.002624 -0.190610 0.616115 -0.339305 -0.894728 -0.276355 0.297740 0.097692 -0.246749 -0.781049 -0.008996 0.990798 -0.260986 -0.141228 -0.220402 0.645122 -0.553293 -0.274044 0.471023 -0.325168 -0.105383 0.222289 -0.275602 -0.054756 -0.471310 -0.399911 -0.154982 -0.069181 0.570628 0.345206 -0.086535 -0.574362 -0.458338 -0.193342 0.123170 0.317296 0.242256 -0.081074 0.480536 -0.523237 -0.014328 -0.347078 0.602284 0.863229 -0.049260 0.164451 -0.395186 -0.189992
time -0.069271 -0.712317 0.404699 -0.780360 0.392533 0.288731 -0.190675 0.065479 -0.514770 -0.293604 0.244072 -0.290218 0.299816 0.463433 -0.408621 -0.716160 -1.004706 -0.595683 -0.908474 -0.168596 0.825826 -0.014567 -0.376252 0.059239 -0.106716 -0.186118 -0.566202 0.083373 -0.096860 -0.283099 0.814899 0.696011 0.206240 -0.183671 -0.955566 0.244503 -0.034481 0.399657 0.337336 -0.145926 0.062459 -0.637352 0.067586 -0.482903 -0.119328 0.931605 -0.101984 -0.132198 -0.330631 -0.319442
dont 0.293526 -1.062788 -0.042595 -0.789792 -0.073617 0.241850 -0.128722 -0.763678 -0.042173 -0.003864 0.084673 -0.521952 0.247160 -0.298585 0.182997 0.442044 0.097652 0.173350 0.099908 -0.399129 1.164981 0.232665 -0.002336 -0.797906 -0.469624 0.444422 0.200281 0.361201 -0.477673 0.150826 0.466958 1.292488 -0.274165 -0.245752 -0.081887 0.601605 0.052159 -0.485073 0.529544 0.594047 -0.016678 0.189314 0.149680 -0.321681 0.356769 0.736489 -0.234312 -0.266029 0.318815 -0.355504
that's -0.244589 -0.756539 0.952512 -0.654073 0.505243 0.255462 -0.410695 -0.357353 -0.331791 -0.041648 0.358985 -0.886557 0.673635 -0.029948 0.421119 -0.125675 -0.319259 0.622164 -0.080743 0.228308 0.575522 -0.620349 -0.093851 -0.477872 -0.419063 -0.447170 -0.395396 -0.071342 -0.078304 -0.228560 0.374249 0.543822 -0.078439 0.041371 0.003061 0.552642 0.518706 0.134484 0.501910 0.412786 0.079765 -0.999104 0.210061 -0.820600 0.275643 0.629051 0.366688 0.117716 0.025174 -0.669103
back 1.055547 0.171564 -0.707904 -0.527019 0.727042 0.105268 0.471038 0.448980 -0.075001 0.556861 -0.106756 -0.304776 -0.467366 -0.515546 -0.760399 -0.783135 0.218870 0.400550 0.033738 -0.459734 0.259270 -0.006080 -0.008646 -0.278051 0.300595 0.295767 -0.980830 -0.013033 -0.808483 0.005137 0.324959 -0.264454 0.401578 -0.489693 -0.161795 0.608761 0.088136 0.793286 0.362339 0.519025 -0.482345 0.088122 0.239233 -0.137946 -0.127112 -0.064540 -0.276292 -0.693699 -0.371115 -0.120995
could 0.804674 -0.477489 -0.952718 -0.975439 0.209485 -0.230068 0.541770 0.085834 0.649678 0.656024 -0.009651 -0.698162 -0.209370 0.023608 -0.450578 0.179125 -0.084723 -0.036434 0.017568 -0.354069 -0.219838 0.751376 -0.007835 0.059147 -0.095348 -0.301029 -0.801274 0.275505 -0.125951 -0.241773 0.558083 -0.110618 0.630750 0.269413 -0.243713 0.543551 0.038875 -0.246643 0.092430 0.266244 -0.267020 -0.164748 0.041791 -0.409513 -0.135566 0.607928 -0.143989 -0.660422 -0.125938 -0.216603
some 0.382455 -0.248477 -0.477531 -0.131351 0.594501 -0.045086 0.708380 -0.052739 0.043571 0.226896 0.344190 -0.078429 0.427650 0.578987 -0.489329 -0.155037 0.161934 -0.604264 -0.488435 -0.204405 -0.018375 -0.710502 0.188243 -0.482434 -0.551144 0.111751 -0.468643 0.379185 -0.662301 -0.100474 0.325708 0.224705 -0.376617 -0.085114 -0.148799 0.186604 -0.096115 0.309980 -0.196799 0.180299 -0.203224 0.505635 0.205246 -0.290761 -0.000861 0.799704 -0.182579 -0.487384 0.296062 -0.247246
when 0.500611 -0.180845 -0.718612 -1.144960 -0.015569 -0.278792 -0.252438 0.702184 0.071791 0.089066 0.365065 -0.001130 0.117936 -0.457264 -1.122055 -0.289856 -0.088494 -0.089639 -0.072931 0.061267 0.038555 -0.265076 0.051984 -0.342658 0.315462 0.239280 -0.739505 -0.392255 -1.216240 -0.014191 0.058634 0.317985 -0.031364 0.145129 0.209345 0.969081 0.347780 -0.032476 0.474856 0.166797 -0.339504 -0.336673 -0.148802 -0.160267 -0.050397 -0.167668 -0.289851 -0.291487 -0.490781 0.077239
yeah 0.188787 0.022780 0.765779 -0.410536 0.341603 -0.112345 0.285789 -0.528537 0.349152 0.594182 0.380072 -0.895721 0.310934 0.044971 0.165893 -0.194075 -0.268711 0.558488 -0.179071 -0.246172 -0.095659 -1.071974 -0.098033 -0.612461 -0.267135 -0.687447 -0.273569 -0.450884 -0.899830 -0.072196 -0.072369 0.063467 -0.269247 0.138796 0.170017 0.291179 0.926194 0.354808 0.482017 -0.029074 -0.729855 -0.454542 0.101019 -0.801709 0.764454 0.105934 0.025905 -0.073075 -0.298981 -0.135400
great -0.191146 -0.314464 0.841781 -0.401843 0.455871 -0.102317 -0.355245 -0.384199 0.192501 0.473933 -0.378353 -1.279355 0.520836 0.688047 -0.059403 -0.110741 -0.251376 0.448336 -0.667468 0.027185 0.182665 0.012518 -0.173242 0.723964 -0.483274 -0.579781 -0.755218 -0.240066 -0.558006 -0.574653 0.808387 -0.147472 0.185897 -0.167228 -0.030620 -0.098035 0.447918 -0.138885 0.284606 0.117844 -0.058563 -0.772827 -0.400740 -0.596992 0.422916 0.362629 0.357219 -0.061229 -0.583730 -0.411002
its 0.066152 -0.318060 0.704701 -0.277942 0.485145 -0.448385 -0.796848 -0.223314 0.210567 -0.110704 -0.079737 -0.649328 0.210063 -0.596631 0.204331 -0.175956 0.135475 0.321697 -0.225194 0.627916 0.412505 -0.657827 -0.093837 -0.740645 -0.853227 0.204343 -0.278449 0.064151 -0.217680 0.197047 0.121195 0.825250 -0.400812 -0.275022 0.241212 -0.074345 0.478386 -0.325831 0.514021 0.508032 0.061720 -0.599608 -0.157021 -0.490772 0.367210 0.817365 0.370383 0.230515 -0.510133 -0.149615
come 1.242041 0.278900 -0.337539 -0.519061 0.622065 0.063874 0.365231 -0.028665 0.026570 0.343641 -0.482524 -0.399280 -0.269861 -0.162487 -0.061855 -0.492989 0.130525 0.610304 0.392039 -0.585954 0.475141 -0.113349 0.093502 -0.500838 -0.102610 0.609965 -0.815246 -0.422750 -0.669297 0.261387 0.876292 -0.045966 0.011035 -0.112163 -0.243931 0.476624 -0.020788 0.462879 0.536357 0.743708 -0.442958 0.249691 0.066543 -0.413570 -0.125929 0.305973 -0.105184 -1.041587 -0.549179 0.016265
too 0.379754 -0.659644 -0.043253 0.049989 0.592942 -0.457965 -0.195787 0.272201 0.079377 0.815860 -0.094990 -0.093748 0.677273 -0.058489 -0.105599 0.315101 -0.132587 0.251736 -0.213525 -0.028391 0.269419 -0.823831 -0.327413 0.469578 -0.896807 -0.143891 -0.669662 0.085633 0.011033 -0.580713 0.607174 0.429267 0.179402 -0.470372 -0.489794 -0.074400 0.864588 0.147523 -0.027758 0.674578 0.050833 -0.581956 -0.347462 -0.060476 0.282695 0.667589 0.622149 -0.355742 -0.765090 0.006519
had 0.630118 -0.513164 -0.182557 -1.004555 -0.729156 0.178187 0.140270 -0.240740 0.388986 -0.331755 0.191004 -0.356139 0.056282 0.542157 -0.964985 0.168912 -0.511665 -0.759483 -1.083130 -0.011124 0.208531 -0.571796 -0.124842 -0.158248 -0.611779 -0.518279 -0.428085 0.126704 -0.564556 0.304072 -0.209626 -0.088311 -0.074773 0.398628 -0.343827 0.273556 0.310712 -0.963337 0.002579 -0.163610 -0.192348 0.124600 -0.338474 -0.677782 0.033029 0.368703 -0.269198 -0.698473 -0.107093 -0.070675
they 0.461097 -0.621533 -0.875999 -0.790793 0.063877 -0.628250 0.250664 0.209177 0.108465 0.179459 0.162020 -0.300333 0.186806 0.188755 -0.608383 -0.274148 0.115048 0.020199 0.190969 -0.149089 0.095203 0.382639 -0.043900 -0.529802 0.286244 -0.026329 -0.562163 -0.135543 -0.846815 -0.001941 0.225693 0.848899 0.422229 0.005529 -0.046382 0.960573 0.177425 -0.133628 0.303459 -0.023243 -0.108274 -0.008797 -0.030963 -0.202944 -0.270449 0.453684 -0.605583 -0.853024 0.263039 -0.324519
little -0.127585 -0.104311 0.192639 -0.146243 0.412865 -0.205486 -0.078226 0.345322 0.451328 0.222371 -0.517534 -0.377214 -0.234297 0.926497 0.207928 0.006796 0.313566 -0.393070 -1.018539 0.054481 -0.299143 -0.067277 0.458326 -0.046795 -0.707529 0.344785 -1.016767 0.129078 -0.431986 -0.169602 0.289562 -0.550334 -0.351078 0.150537 0.454463 -0.418563 0.191410 0.317622 0.135773 -0.129924 -0.179039 -0.129073 -0.241850 -0.615458 0.018060 0.462097 -0.408102 -0.041808 -0.263964 -0.167829
then 0.124582 -0.208094 -0.814950 -0.515812 0.692128 -0.386108 0.161489 -0.014253 -0.222359 -0.036177 0.087856 -1.004128 0.181481 -0.416515 -0.756040 -0.785880 -0.136369 -0.420142 0.222482 0.486193 0.154144 -0.187709 0.235660 -0.493879 -0.184416 -0.499784 -0.394120 -0.498609 -0.400966 -0.065604 0.635591 0.429190 0.108530 0.060674 0.104250 0.856501 0.516975 0.247347 0.357188 0.076474 -0.500877 -0.339707 0.198119 -0.044732 -0.024519 0.084436 -0.087541 -0.327496 -0.102018 -0.289828
It's -0.266715 -0.308674 0.647999 0.223419 1.016249 0.460068 -0.779621 0.415275 0.164274 -0.286086 -0.332032 -0.097764 0.030592 -0.452824 0.128086 -0.302021 0.082441 0.477675 -0.226479 0.286010 0.460671 -0.193909 -0.546426 -0.105151 -1.005508 0.368315 -0.530431 -0.104672 -0.274378 0.430229 -0.217797 0.253058 -0.062054 0.057674 -0.315595 0.143068 0.002000 -0.035769 -0.033159 0.048851 0.039042 -0.322016 -0.181606 -0.890455 0.175228 0.568714 0.076452 0.199210 -0.226119 0.073968
would 0.658217 -0.538613 -0.038096 -0.666733 0.355182 -0.678662 -0.416465 0.188324 0.705709 0.039923 -0.020208 -0.905372 0.191234 0.749365 -0.593336 0.049400 -0.067438 0.022226 -0.628310 -0.053033 -0.267376 0.461991 0.327112 -0.017008 -0.333698 -0.878527 0.045238 -0.088419 -0.630360 -0.297699 0.456203 0.308331 0.445848 0.012108 -0.094341 0.219751 0.369776 -0.272692 -0.028491 0.286171 -0.275303 0.270105 -0.127404 -0.520723 -0.080195 1.068820 0.058308 -0.489950 0.493977 -0.186061
Chandler 0.257933 0.175376 0.300230 -0.053013 0.275585 -0.158923 -0.231836 -0.125258 -0.035677 0.214616 -0.789205 -0.305570 -0.023098 -0.518050 0.055064 -0.760343 0.679159 0.603598 0.322933 -0.234325 0.395347 -0.172996 -0.059129 -0.162743 0.050990 0.112669 0.196714 -0.723377 -0.798490 0.117639 0.380666 0.256447 0.146240 -0.507834 -0.282445 0.373881 -0.508419 0.233478 0.291274 -0.150773 -0.842154 0.090778 0.085198 -0.105056 0.492586 0.531235 0.435898 -0.439606 -0.394657 -0.007437
love 0.857985 -0.386297 0.511049 -1.103039 -0.041339 -0.313910 -0.194268 0.188575 0.179541 0.374097 -0.192954 -0.118469 0.049221 0.239264 -0.552889 -0.109047 0.225444 0.019777 -0.238792 -0.325641 -0.618236 -0.294896 0.659611 -0.026903 0.098676 -0.547343 0.241738 0.347462 -0.556103 -0.576391 0.357169 0.111935 0.147559 -0.751679 -0.630844 -0.025981 0.111527 0.125013 0.391172 0.347711 -0.372692 0.087901 -0.110659 0.219014 0.157459 1.171323 0.852751 -0.210782 -0.663652 -0.195487
well -0.025095 -0.211052 0.116872 -0.403629 0.809889 0.214668 0.077737 -0.454463 -0.204910 0.345855 0.223092 -1.075600 0.360149 -0.186836 -0.326145 -0.123113 -0.319434 0.294218 0.132548 0.085378 0.234921 -0.541296 0.064335 -0.246559 -0.105509 -0.398015 -0.191692 -0.371369 -0.415554 -0.216717 0.801560 0.148098 -0.244411 0.153517 0.002350 0.436637 0.607345 0.455133 0.324110 0.452919 -0.381892 -0.531911 0.237885 -0.727324 0.259776 0.109466 0.305541 -0.044620 -0.163807 -0.243621
say 0.560217 0.021970 -0.379923 -0.409537 0.503932 -0.332080 -0.415598 0.053186 -0.045041 0.387523 -0.215752 -0.900408 0.390803 -0.279788 -0.297216 0.175851 0.052917 0.457112 0.182275 -0.296076 0.120242 0.327634 0.017893 -0.477323 -0.113676 -0.534379 -0.071559 -0.169612 -0.456163 0.213307 0.246698 0.506002 0.273324 0.269947 -0.308845 0.429321 0.402772 -0.087533 0.303545 0.610318 -0.483343 0.253230 0.060878 -0.828467 -0.367348 0.477566 -0.016623 -0.125967 0.379690 -0.254738
been 0.456873 -0.456783 -0.201698 0.097284 -0.247199 -0.230025 -0.337942 0.473469 0.204995 -0.266030 -0.092894 0.690474 0.105900 0.924744 -0.922230 0.302983 -0.162246 -0.491893 -0.658635 0.794557 0.035714 -0.717007 0.044901 0.715375 -1.469530 -0.040701 -0.401645 -0.287057 -1.082294 0.727385 0.388221 -0.662070 -0.283884 0.400523 0.108621 -0.072416 0.856026 -0.510564 -0.153682 0.033455 -0.473938 -0.049815 -0.628327 -0.455226 0.078541 0.409025 -0.091237 -0.566538 -0.605733 -0.212937
can't 1.012885 -0.548458 -0.022349 -0.822579 -0.155355 1.015058 -0.083107 -0.128969 -0.016208 0.491409 -0.449017 -0.674682 -0.409344 -0.689063 -0.001689 -0.545333 0.893826 0.318658 0.515926 -0.380853 0.054272 0.682904 -0.445430 -0.596057 -0.248474 -0.043263 0.674375 1.071406 -0.372994 0.291296 -0.448019 0.389665 0.728330 0.021758 -0.673327 0.748410 -0.505193 -0.541668 0.378776 0.497757 -0.448800 0.222782 0.323189 -0.302541 -0.278252 0.963869 -0.377835 -0.026358 -0.131362 0.149519
Yes -0.109857 -0.258231 0.751343 -0.276524 -0.321787 0.246743 -0.532842 -0.299881 0.019362 0.628945 -0.306939 -0.649408 0.139528 0.401794 0.428233 0.116179 0.318600 0.839617 -0.032172 -0.640926 -0.275435 -0.262202 0.143350 0.305949 -0.527915 -0.606171 -0.115560 -0.411345 -0.646123 -0.042343 0.048156 -0.212876 0.107875 0.025440 -0.536807 1.011016 0.512936 0.394488 0.118787 -0.396263 -0.265631 -0.242995 -0.140320 -0.669501 -0.164207 0.276092 0.027035 0.131296 -0.430199 0.000061
something -0.052437 -0.128397 -0.217196 -0.250810 0.523248 -0.185136 -0.165603 -0.066968 0.725933 0.094411 -0.178978 -0.898051 -0.266373 0.039966 -0.324385 0.479375 0.220775 -0.045709 -0.181678 0.090094 -0.663051 0.255712 0.552181 -0.251319 -0.288299 0.067978 -0.303953 0.380529 -0.789844 -0.209327 0.172055 0.033672 0.337250 0.550048 -0.081333 -0.038009 0.451013 0.780872 -0.435100 0.605961 -0.592480 0.432408 0.405721 -1.085734 -0.079877 0.894580 0.506116 -0.222673 0.563808 -0.310511
We 0.815639 -0.113771 -0.730850 -0.822693 0.015194 -0.246299 0.540968 -0.220474 0.392567 0.276562 -0.311469 -0.607207 -0.141853 0.346893 -0.208949 0.069570 -0.517970 0.147380 0.299179 -0.051696 0.136128 0.695275 -0.512620 -0.206649 0.041513 -0.219150 -0.707238 0.133774 0.079279 -0.139812 0.536805 0.073649 0.864899 0.038498 -0.178545 -0.114895 -0.194147 -0.523982 0.248930 0.194954 0.354058 -0.444681 -0.090681 -0.951167 -0.267229 0.697182 -0.182765 -1.098772 0.230054 -0.394573
Phoebe 0.070447 0.499441 -0.035837 0.033660 0.464607 0.039167 -0.299734 0.032254 0.221460 0.427915 -0.600641 -0.444158 -0.137322 0.038994 0.296648 -0.484862 0.639053 0.777216 0.251427 -0.197300 0.577460 0.013289 -0.088761 -0.418833 -0.273987 -0.260396 -0.228829 -0.844885 -1.131109 0.449026 -0.060350 0.346585 0.209110 -0.285803 0.481531 0.264339 0.268500 0.066403 0.567354 0.138604 -0.856975 0.237421 -0.053267 -1.081117 0.143392 -0.250257 0.022793 -0.168899 -0.043240 -0.330017
Rachel 0.063538 0.181766 -0.155407 0.103000 0.242219 0.377814 -0.274846 -0.030292 0.229588 0.309633 -0.781972 -0.665278 -0.096018 -0.221167 -0.137715 -0.373114 0.557430 -0.098336 0.355814 -0.142190 0.354258 -0.229072 0.209676 -0.465355 -0.466860 -0.359243 0.344793 -0.328271 -1.089047 0.374982 -0.048176 0.488359 0.100277 -0.495080 0.098061 0.520788 -0.078115 0.247883 0.045842 -0.047695 -0.704516 0.341229 0.072319 -0.387130 0.547984 0.046086 -0.118217 -0.420185 -0.195131 0.067632
guy 0.063109 0.076798 0.862707 -0.093672 0.238425 0.063029 -0.289016 0.231922 0.324566 -0.178582 -0.357169 -0.372581 -0.108727 0.215015 -0.362710 -0.516840 -0.261161 -0.371817 -0.607601 -0.063960 -0.197556 -0.492404 0.669859 -0.108516 -0.574336 -0.211221 0.201654 -0.111012 -0.867144 -0.264838 0.439230 -0.307756 -0.369974 -0.289452 -0.086028 0.045407 -0.132677 0.167330 0.063448 -0.010084 -0.272773 0.178683 -0.483902 -0.004296 0.466507 0.504012 -0.192301 -0.149533 -0.194193 0.493558
should 0.764610 -0.736685 -0.855706 -0.341519 -0.016240 -0.103655 0.601182 -0.293201 0.385301 0.535396 -0.063361 -0.844029 -0.150304 -0.371461 -0.481953 -0.202478 -0.120103 -0.104105 0.291030 -0.146577 -0.093729 0.364958 -0.043041 -0.570036 0.369046 0.106766 -0.407363 0.195790 -0.349789 -0.297039 0.601731 0.404756 0.528657 0.001934 -0.063868 0.087238 -0.036530 -0.027226 -0.060791 0.651456 -0.302179 -0.169225 0.000068 -0.587635 -0.212182 0.824663 -0.250462 -0.896439 0.255735 -0.122951
Look -0.237806 -0.001949 0.495441 -0.271246 0.223827 0.427154 -0.153931 -0.129626 0.055594 -0.049249 -0.698416 -0.437333 0.322647 0.200498 -0.014347 0.194730 0.486148 -0.414229 -0.224215 -0.231243 1.070151 0.014542 0.219957 0.059803 -0.405763 0.680587 -0.195489 -0.303745 -0.813083 -0.200596 0.307146 0.259115 -0.347633 -0.571596 0.180311 0.284612 0.286742 0.140379 0.669687 0.541926 -0.360797 0.453154 -0.151879 -0.275257 0.418549 -0.033689 -0.217678 -0.038926 -0.715082 0.304948
an 0.245990 0.248803 0.274618 -0.049372 0.119726 -0.292790 -0.518515 -0.273866 0.334889 -0.094474 -0.575901 -0.035422 -0.223742 0.293185 -0.158430 -0.018574 -0.011414 0.224909 -0.127451 0.581681 0.226001 -0.691965 0.341660 0.089566 -0.345890 -0.511174 -0.575203 -0.019769 -0.043303 0.516584 0.115984 -0.059276 -0.134522 -0.000016 -0.043256 0.260708 -0.198099 -0.273775 -0.090845 -0.258143 -0.370428 -0.281925 0.150250 -0.217725 -0.028772 0.207783 0.053027 -0.260450 -0.430303 -0.147078
Monica -0.133920 -0.175406 0.365638 -0.234771 0.346191 0.340623 -0.522917 0.327542 -0.068059 0.252728 -0.746337 0.023727 -0.006119 -0.513464 -0.459961 -0.318346 0.809565 0.301069 0.034494 -0.251489 0.481359 0.295843 0.100437 0.076124 -0.113339 0.015761 0.173495 -0.354930 -0.931740 0.391167 0.177386 0.157867 0.063084 -0.132180 -0.146068 0.453513 -0.301140 0.059839 0.297993 -0.077640 -1.003598 0.312822 0.133770 -0.244388 0.244264 0.374668 0.321980 0.153357 -0.472148 -0.058113
wanna 0.950942 -0.440055 -0.318680 -0.351653 0.323459 -0.071102 0.404774 -0.462448 0.000095 0.854897 0.267180 -0.513092 -0.190265 -0.016437 -0.653088 -0.225742 0.498001 0.445204 0.039089 -0.802663 0.011101 0.438830 -0.436133 -0.546008 0.379283 0.190464 0.102674 0.533892 -0.245795 -0.075486 0.770647 0.536193 -0.511878 -0.204780 -0.576652 0.050204 -0.165342 0.483249 -0.108326 0.182704 -0.581728 0.450523 0.224925 -0.349532 -0.270036 0.894056 -0.248339 -0.592035 0.036355 -0.323387
This -0.279750 -0.301102 0.661746 0.069751 0.588731 0.515052 -0.417555 -0.222840 -0.074368 0.085515 -1.344058 -0.160152 -0.487565 -0.275873 0.542772 -0.611951 -0.181237 0.092686 0.057913 -0.079962 0.541588 0.194318 0.212664 0.200407 -0.652200 0.226728 -0.045127 -0.576072 -0.696179 -0.046185 0.294139 -0.339769 0.948128 -0.297281 -0.828642 0.259579 -0.341428 -0.091082 0.145983 0.250294 0.068941 -0.436437 -0.220496 -0.271021 0.529468 0.061339 0.229906 0.281982 -0.408725 0.566701
as 0.401653 -1.128068 -0.203256 -0.116534 0.459792 -0.815744 -1.041134 0.912368 0.044480 0.447424 -0.346382 0.623529 -0.431517 0.303137 0.022249 0.264603 -0.242031 0.616147 -0.124637 0.023585 -0.312704 -0.178206 0.192790 0.648538 -0.027603 0.310256 -0.715469 0.213079 0.691817 -0.219739 0.670681 0.324408 0.260755 -0.829605 -1.136504 0.434567 -0.263836 0.394471 -0.080022 -0.080367 0.741498 -0.556847 0.170158 0.434848 0.121297 0.999474 0.388041 -0.241837 -0.761572 -0.219019
over 0.595520 0.260283 0.331606 0.015955 0.981086 -0.017346 0.065375 0.170739 0.231167 -0.128950 0.229862 -0.963370 -0.363559 -0.458338 -0.228888 -1.490585 -0.180827 -0.158794 -0.124050 -0.008198 0.413394 -0.806061 -0.259730 -0.314318 -0.160718 0.472016 -0.618265 -0.194592 -0.081769 -0.094025 0.514213 0.019412 -0.301900 -0.153246 -0.131663 0.174814 0.435013 0.867985 0.266512 0.260764 -0.376799 -0.003367 0.074754 0.049449 0.263665 0.717230 -0.127986 0.043360 0.107429 0.614809
Why 0.537856 -0.264659 -0.022917 -0.437513 0.344275 -0.628881 0.052348 -0.035932 0.263674 0.017453 -0.675448 -0.133661 -0.078160 0.322697 0.016330 -0.096780 0.203510 0.244323 0.343969 -0.348625 0.365878 0.780558 -0.380190 -0.873837 0.197728 -0.206697 0.169227 0.200916 -0.768613 0.260751 -0.359980 0.456559 0.919300 -0.300637 -0.209784 0.780183 -0.401600 -0.554239 0.101465 0.401832 0.437661 -0.079734 0.190770 -0.631027 -0.202284 0.810629 -0.143306 -0.530780 0.773636 0.081626
because -0.112730 -0.920743 -0.262610 -0.803446 0.280993 -0.019056 -0.286615 0.040978 -0.168274 -0.205066 0.538783 -0.365721 0.184338 -0.311149 -0.428634 0.117609 -0.207589 -0.139602 -0.225153 0.458315 0.350771 -0.532749 0.308404 -0.528076 -0.512931 0.096859 -0.624226 0.071651 -0.318830 -0.104256 0.148924 0.431238 0.117486 0.082769 0.034675 0.592534 0.315507 -0.176229 0.257873 0.743397 0.096134 -0.336096 0.001428 -0.138551 -0.052576 0.564286 -0.032751 -0.152896 0.375333 -0.281290
them 0.394970 -0.689254 -0.485035 -0.558815 0.254988 0.221204 0.432990 -0.074909 -0.112320 -0.062169 0.311942 -0.518959 0.022680 -0.031429 -0.446038 -0.939262 0.311093 -0.776850 0.136631 -0.333896 0.667839 -0.046413 0.053730 -0.338096 -0.186650 0.518072 -0.584237 0.093678 -0.084143 -0.339987 0.260879 0.235103 0.179797 -0.278051 -0.286795 0.435808 -0.104781 0.055175 -0.049744 0.195402 -0.306492 0.201492 0.263010 0.098469 0.189331 0.561011 -0.755131 -0.396886 0.527123 0.042530
The -0.061438 0.220975 0.378105 0.186154 0.662789 -0.095912 -0.210405 0.307678 0.135227 -0.351345 -0.187605 0.390715 -0.336902 0.405779 0.389056 -0.680683 -0.605257 -0.076477 -0.298502 -0.243067 0.726042 -0.105586 -0.143546 -0.107241 -0.069779 0.038558 -0.247220 -0.439509 -1.034205 0.478315 0.017051 0.397210 0.144686 -0.053868 -0.134853 0.327770 -0.372250 0.411651 0.112653 -0.446787 -0.469400 -0.111330 -0.208563 -0.146850 0.522995 0.093191 -0.640576 -0.158015 -0.164276 0.516427
doing 0.559970 0.201962 0.192753 0.413778 0.444644 -0.784410 -0.197990 0.891387 0.451757 0.427820 -0.549242 0.545399 0.340969 0.227805 -0.244848 -0.254825 0.506623 0.715634 0.143319 -0.017855 0.438719 0.199223 -0.534481 -0.396668 -0.096916 0.383074 -0.582724 -0.693947 -1.273509 0.453205 -0.430135 0.271687 0.470413 0.036882 0.341080 0.022105 0.441796 -0.049327 0.298674 0.040479 -0.613096 0.082232 0.002556 -0.967832 -0.102232 0.630245 -0.417340 -0.281148 0.139069 -0.032937
from 0.192477 -0.221318 -0.048421 -0.419379 0.095419 0.208456 0.453675 -0.172239 0.065404 -0.119021 -0.033690 -0.006536 -0.157817 0.195510 0.076587 -1.075450 -0.018662 -0.334252 -0.118250 -0.354203 0.602128 -0.310438 0.307225 -0.478844 -0.325827 -0.003513 -0.117757 0.113218 -0.569450 -0.029778 0.041095 -0.051894 0.357588 -0.271028 -0.286065 0.477603 -0.396106 0.078809 0.089222 -0.273216 -0.738914 -0.259468 -0.010224 0.284326 0.551000 0.009140 -0.680407 -0.398420 0.160075 0.361886
make 0.392935 -0.876024 -0.060696 -0.403237 0.491323 -0.191874 -0.074295 -0.146329 0.344041 0.545872 0.196895 -0.687706 0.036863 0.374523 -0.531929 -0.007648 0.293893 0.113262 -0.150709 -0.132456 -0.298295 0.111575 0.206819 -0.194772 -0.224105 -0.171168 -0.267991 0.095497 -0.011432 -0.083390 0.514737 0.059300 -0.180894 0.008254 -0.389361 0.015216 0.107523 0.151595 -0.171157 0.238897 -0.278561 0.226839 0.290594 -0.189442 0.155342 1.158178 0.094275 -0.246465 0.064837 -0.297486
his 0.175565 0.479101 0.084200 -0.550499 0.377111 -0.078083 0.208887 0.045703 -0.248403 -0.357329 0.074978 -0.522694 -0.696115 -0.125120 -0.694319 -0.547004 0.292949 -0.452443 -0.180222 -0.445618 -0.068986 -0.595591 0.456604 -0.101850 -0.072282 -0.272971 -0.512969 0.094587 -0.970871 -0.050156 -0.050311 -0.460763 0.027039 -0.776111 -0.021718 1.011609 -0.332984 -0.077511 0.248255 0.189683 0.560676 0.185341 -0.323827 0.050796 0.226040 -0.529880 -0.215370 -0.352744 -0.248465 0.019715
said 0.173789 -0.037603 -0.397546 -0.677152 -0.095200 -0.388917 -0.227270 0.539654 0.230569 -0.022898 0.170116 -0.447316 0.255193 -0.400664 -0.530550 0.178253 -0.186460 0.047502 0.142449 -0.294740 -0.105173 0.048467 0.367288 -0.316323 -0.188539 -0.642628 0.099096 -0.191277 -0.966911 0.007480 -0.085934 0.584158 0.570579 0.254244 -0.024629 0.901238 0.282593 -0.306464 0.444104 0.287870 -0.433006 -0.042123 -0.362450 -0.640201 -0.202992 -0.055287 -0.684173 -0.069645 0.344359 0.137310
That's -0.349722 -0.545745 0.994448 -0.432862 0.553194 -0.039490 -0.627624 -0.262715 -0.201046 -0.295051 -0.005791 -0.618841 0.159168 -0.143030 -0.172385 -0.383595 -0.032910 0.220236 -0.028348 0.428551 0.211070 -0.332490 0.063516 -0.220864 -0.041950 0.081411 -0.493274 -0.100699 -0.096776 -0.225328 0.257284 0.218010 -0.050672 -0.137261 -0.038595 0.185021 0.132136 0.247620 0.318712 0.345612 0.153055 -0.598289 0.275379 -0.479104 0.009487 0.608157 0.096914 0.379666 0.197685 -0.423986
How 0.375156 -0.014762 -0.178467 -0.056217 -0.256262 -0.941243 -0.061672 0.469412 1.033861 0.881483 -0.742299 -0.444245 0.124846 0.105786 0.460245 0.729620 -0.239831 0.436962 0.182425 -0.749672 -0.394964 0.929713 0.045467 0.401083 0.041607 -0.101837 -0.348303 -0.245547 -0.321504 -0.301408 0.599708 0.135386 0.383307 0.109170 -0.549197 0.656000 0.263309 0.315350 0.120672 -0.127780 -0.289288 -0.061732 0.087596 -0.797308 0.051136 0.671684 0.170704 -0.125374 -0.293331 0.084966
That -0.109847 0.017733 0.906605 -0.083183 0.614331 -0.502719 -0.488461 -0.325925 0.814945 -0.167918 -0.363568 -0.954400 -0.008627 0.045080 -0.327364 -0.425950 -0.838020 0.258135 -0.574576 -0.102511 -0.067940 -0.089524 0.151810 0.319216 -0.338536 -0.803372 -0.293379 -0.431240 -0.739976 -0.112173 0.182119 0.061623 0.426792 0.244010 -0.245163 0.151749 0.548448 -0.161019 0.125985 0.033792 -0.295397 -0.231582 -0.549012 -0.358923 0.150360 0.146395 -0.161127 0.111864 0.356851 0.377172
am -0.070148 -0.596129 0.055631 -0.043352 0.288556 -0.083221 -0.384875 0.367126 0.424575 0.257401 -0.658689 0.385310 0.000720 -0.461751 0.305655 0.151351 0.504314 0.667089 -0.124994 0.737775 0.996479 -0.072249 -0.152729 -0.285307 -0.197853 0.760212 -0.582133 -0.237232 -0.212858 0.216751 -0.062837 0.467809 0.397093 -0.748280 0.182211 0.323218 0.082457 -0.041644 0.576416 0.598665 -0.240911 -0.488248 0.487709 -0.278357 0.283321 0.575612 0.378541 0.271299 -0.521868 -0.369545
why 0.155287 -0.784347 0.111173 -0.636527 0.376427 -0.085264 -0.066686 -0.452672 -0.111228 0.146995 -0.131629 -0.298797 0.169005 -0.034654 0.186031 0.311207 -0.037367 0.118403 0.253807 -0.092157 0.683420 0.145226 -0.057765 -0.927901 0.070308 0.164864 -0.118554 -0.034912 -0.604747 0.163082 0.458078 0.833642 -0.101185 0.220225 0.114790 0.803005 0.115631 -0.208297 0.447047 0.727376 -0.004305 -0.274213 0.389638 -0.763453 0.029943 0.646303 0.144578 -0.228217 0.346834 -0.354073
thing -0.206774 -0.475299 0.262507 -0.148886 0.766982 0.089527 -0.436843 0.610674 -0.102192 -0.454751 -0.628522 0.362840 -0.537165 0.424677 -0.183445 -0.609817 -1.103958 -0.864863 -1.119485 -0.200267 0.250885 0.014957 0.140075 -0.132333 -0.695658 0.066970 -0.150464 0.105451 -0.901196 0.126066 0.169770 0.244862 0.455741 0.148828 -0.923920 0.348914 -0.632220 0.196221 -0.030847 -0.327341 -0.010377 -0.280166 -0.436353 -0.641589 0.344348 0.351859 -0.775431 -0.154394 -0.390515 0.429555
us 0.092020 -0.435732 -0.767168 -0.146452 0.026267 0.028003 0.125419 0.395681 0.208172 0.057536 0.086107 -0.584796 -0.204988 0.023541 -0.252776 -0.304924 0.023925 -0.431150 0.150818 -0.477764 0.100261 0.175784 0.494150 -0.113036 -0.315584 0.416179 -0.512948 -0.303932 -0.729482 -0.150013 0.182139 0.036795 0.423631 -0.130185 -0.120788 0.639040 -0.004310 0.391614 -0.065631 0.267657 -0.137620 0.383092 0.111003 -0.074669 0.383779 0.394613 -0.568639 -0.636899 0.362188 0.068600
or 0.122462 0.047958 -0.331146 -0.288886 0.231653 -0.455204 0.187659 0.261571 0.506378 -0.074815 -0.152769 -0.597131 -0.042086 0.358083 -0.011293 0.353919 0.319451 -0.311336 -0.108789 0.232709 -0.991365 0.322860 0.599835 -0.370138 -0.201760 -0.118733 -0.405100 0.475368 -0.280858 -0.119382 -0.026691 -0.040635 0.232540 0.499068 -0.048901 0.020400 0.229196 0.209806 -0.435164 0.199411 0.077521 0.150567 0.020730 -0.757187 -0.324066 0.733551 -0.038608 -0.487484 0.369758 -0.364808
I'll 0.546769 -0.534382 0.011994 -0.045555 0.308584 0.439251 0.362290 -0.083436 -0.133318 0.442592 0.356174 -0.934690 0.045306 -0.746708 -0.234161 -0.831808 0.491321 -0.151731 -0.057413 0.126439 0.018797 0.303844 -0.038824 -0.358036 -0.016954 0.363928 -0.038422 -0.127369 0.313660 -0.534887 0.652415 0.037766 -0.219106 -0.092986 -0.547941 0.043669 0.437241 0.943577 0.063267 0.447244 -0.700845 0.106308 0.858247 -0.712764 -0.382756 0.635133 0.166261 0.505928 0.159459 -0.671299
who 0.173609 -0.249438 0.239925 -0.131547 -0.194252 -0.119576 -0.363851 0.264484 0.278858 -0.620468 -0.239051 -0.390161 -0.133203 0.346218 -0.498742 -0.384037 -0.541141 -0.573550 -0.344515 -0.017416 -0.340688 -0.117277 1.048979 -0.140346 -0.481651 -0.471018 0.160948 -0.146170 -1.160766 -0.086195 0.112105 0.360074 -0.021937 0.015198 -0.398234 0.475742 -0.250485 0.268080 -0.433354 -0.427771 -0.543801 0.289592 -0.419238 0.065298 0.234723 0.434458 -0.526030 -0.833255 0.267796 0.445067
never 0.788464 -1.024610 -0.282328 -0.805087 -0.345669 -0.064987 -0.388329 0.160338 0.362367 0.351323 0.050155 -0.307511 -0.194360 0.248652 -1.246791 0.588341 0.121462 -0.322149 -0.532052 0.431464 -0.401218 -0.151526 -0.057411 0.109839 -0.176238 -0.374233 -0.218030 0.694380 -0.376024 -0.005715 0.129158 -0.064935 0.068088 0.099430 -0.242088 0.054185 0.163941 -0.679178 -0.384213 0.426124 -0.280161 0.041850 -0.145417 -0.429587 -0.166243 1.023679 0.003188 -0.511578 -0.193670 -0.219055
will 0.861752 -0.327246 -0.712702 -0.118221 0.560787 -0.264798 0.199477 0.035777 -0.080795 0.191053 0.189845 -0.138110 -0.192972 -0.069365 -0.274544 -0.447453 0.140460 -0.083880 0.325900 0.023594 0.033430 0.036902 0.159045 -0.337250 -0.358254 0.222134 -0.192310 -0.121938 -0.029674 -0.126846 0.601816 0.079670 0.245103 -0.046783 -0.324262 0.219854 -0.073938 0.282526 0.154004 0.557601 -0.416293 0.287706 0.113870 0.042462 -0.262275 0.503136 -0.169387 -0.486388 0.168954 -0.180588
yknow -0.061730 -0.205876 -0.266592 0.020263 -0.039893 -0.059202 0.077976 0.067809 -0.118264 0.089158 -0.175352 -0.667642 0.592334 -0.232739 -0.005973 0.221240 -0.401314 -0.105477 -0.001326 0.379066 0.485189 -0.450703 0.205903 -0.189679 -0.445016 -0.213037 -0.244620 -0.531804 -0.473691 -0.288007 0.507948 0.750954 0.053586 0.043769 0.156071 0.528691 0.702946 0.017067 0.310849 0.162747 -0.382184 -0.494976 0.002142 -1.081527 0.107825 0.041000 -0.074097 -0.333711 -0.234870 -0.381565
much -0.069325 -1.214667 0.005660 -0.288896 0.185489 -0.343554 -0.996318 0.264007 0.289890 0.726809 -0.385150 -0.097980 0.488801 0.438736 0.031562 0.829367 -0.003904 0.670963 -0.178727 -0.446259 -0.021500 -0.253132 0.188711 1.008504 -0.673631 0.110743 -0.457244 -0.477599 -0.070188 -0.587776 0.730917 0.205814 0.204319 -0.808093 -1.173802 0.337355 0.250857 0.015315 -0.120279 -0.008980 0.335796 -0.612875 -0.057364 0.173486 0.772102 0.818033 0.745846 0.206419 -0.918501 0.025016
people 0.305461 -0.239352 -0.587647 -0.023887 0.350762 -0.481563 0.051940 0.687210 -0.019033 -0.075714 0.422997 0.374698 0.051605 0.441291 -0.375102 -0.290578 0.114147 -0.502816 -0.213681 -0.092431 0.033218 0.094152 0.257246 -0.253188 -0.310268 0.477894 -0.097860 -0.013206 -0.851338 -0.147378 0.376435 0.548820 0.027176 -0.209107 0.029862 0.136196 -0.025729 0.506980 0.021082 -0.032082 -0.450914 0.323940 0.092157 -0.508515 -0.153862 0.616627 -0.378946 -0.292671 0.388113 -0.291884
take 0.197853 -0.626650 -0.390678 -0.262790 0.173577 0.180228 0.203850 -0.457962 -0.079593 0.101732 0.365596 -1.135889 -0.671344 0.021527 0.052325 -0.800553 0.125695 -0.085683 0.231002 -0.128833 -0.097825 0.200990 0.402703 -0.388270 -0.001103 0.398050 -0.402999 0.284921 -0.021436 -0.332635 0.579549 0.221123 -0.065558 -0.322874 -0.158595 0.355933 -0.088161 0.652835 0.109269 0.140622 -0.109232 0.141541 0.300082 -0.457406 -0.264803 0.634878 -0.541322 -0.264792 0.544940 -0.408904
It 0.203167 -0.019186 0.278291 -0.419032 0.209949 -0.254473 -0.522652 0.044665 0.604286 -0.507725 -0.291254 -0.398518 0.114745 -0.461690 -0.560902 -0.355572 -0.891370 0.120141 -0.580338 0.050278 0.100682 -0.454733 0.468682 0.190703 -0.631892 -0.701991 -0.184346 -0.416491 -0.624749 0.143597 -0.181723 0.063530 0.529868 0.475547 -0.297826 0.292400 0.540278 -0.619369 0.172483 0.218701 -0.386593 -0.036539 -0.676107 0.071031 -0.095113 -0.185648 -0.301525 0.177236 0.284682 0.761746
Uh 0.244367 0.212503 0.346658 0.016682 0.574718 -0.037888 0.231206 -0.588278 0.264537 0.603195 -0.323320 -0.363234 0.493948 0.062818 0.323097 -0.000825 0.202980 0.695497 0.078588 -0.400469 0.330839 -0.358846 -0.373626 -0.518278 -0.240894 -0.336164 -0.082066 -0.530273 -0.439574 0.379771 -0.067437 -0.203205 -0.255759 0.518850 -0.102670 0.321578 0.386307 -0.079886 0.034188 -0.049947 -0.685751 -0.094513 0.262462 -0.456423 0.632166 0.181769 0.344395 -0.139952 0.061696 0.044194
down 0.634815 0.335381 -0.144515 0.056178 0.453115 0.351433 0.491633 -0.096830 -0.223911 0.097445 -0.244277 -0.618904 -0.267701 -0.090696 -0.612019 -1.401806 -0.145414 0.096329 -0.091801 -0.202064 0.286819 -0.078943 0.114736 -0.016394 0.364465 0.313584 -0.201858 -0.344944 -0.097848 -0.052988 0.673976 -0.407222 -0.241553 -0.126875 -0.323403 -0.010575 0.180726 1.002895 0.108815 0.134174 -0.686564 0.443995 0.176841 0.281716 0.034141 0.096366 -0.129771 -0.297934 -0.328668 0.455657
Now 0.072571 -0.371791 -0.021521 -0.135778 0.183117 0.060967 -0.068322 0.094155 -0.016332 0.486695 -0.183236 -0.778535 -0.137289 -0.130774 -0.267701 -0.062958 -0.038202 -0.261737 0.062101 0.025024 0.240498 0.133118 0.127577 0.042427 0.366083 0.139679 -0.349287 -0.237689 -0.213799 -0.455538 0.490500 0.046426 0.139823 -0.021941 0.129127 0.393029 0.141905 0.092741 0.272397 0.416878 -0.061142 -0.141861 0.273625 -0.774066 -0.176622 0.112738 -0.177795 0.191713 0.042577 -0.199286
again 0.537337 0.022921 0.116633 -0.262391 0.301310 0.009456 0.061001 -0.135923 0.196574 0.207178 -0.472836 -0.339537 -0.412806 -0.253786 -0.458908 -0.362219 0.354428 0.205557 0.410543 0.065790 -0.046639 0.377540 -0.137380 -0.533430 0.420804 -0.045202 -0.428940 -0.182776 -0.438938 0.343864 -0.289002 -0.316210 0.326710 0.143934 -0.258073 0.369371 0.284181 0.030467 -0.254087 0.209494 -0.283586 0.179074 0.555165 -0.743704 -0.200421 0.277717 0.194565 -0.054827 0.296221 -0.197036
still 0.598778 -0.107989 -0.273892 -0.695771 0.376610 -0.398537 0.141926 0.330536 -0.227218 0.471337 -0.117370 -0.113037 0.313650 -0.225488 -0.794468 -0.362797 0.432963 0.228550 0.264647 -0.146779 0.145965 -0.013257 -0.067656 -0.582831 0.407010 -0.048009 0.037510 0.262312 -0.223139 -0.153920 0.319764 0.238511 0.233242 -0.490513 -0.007107 -0.060770 -0.020765 -0.174993 0.485769 0.869311 0.070816 -0.133595 -0.137943 0.088153 -0.119619 0.686551 0.001764 -0.200037 -0.337226 0.191768
two 0.440946 -0.216891 -0.278731 -0.150389 -0.277742 -0.585639 0.541101 0.115089 0.240582 -0.413471 0.495944 0.078270 0.002213 0.908497 0.080959 -0.577234 -0.145908 -0.472533 -0.289717 -0.283355 0.004297 -0.007474 0.003596 -0.143588 -0.292942 0.173752 -0.298256 0.082937 0.052885 -0.121647 0.218027 0.169642 0.108411 -0.003693 -0.339967 0.059881 -0.178288 -0.084958 0.000988 -0.276054 -0.013613 0.117432 -0.105298 -0.284748 -0.110446 0.783407 -0.503911 -0.655081 0.423056 -0.204369
way 0.468857 -0.188134 0.322169 -0.138623 0.837441 0.291474 0.151594 -0.082406 -0.315836 -0.092299 0.060266 -0.671191 -0.141241 -0.201129 -0.081709 -0.490124 -0.855387 -0.297224 -0.244162 -0.345255 0.727963 -0.658680 -0.161093 -0.287364 -0.412411 0.135210 -0.521200 0.127570 -0.120646 -0.423800 0.111762 0.349960 -0.016909 -0.429103 -0.741531 0.390100 0.198590 0.379908 0.103424 0.349864 0.012613 -0.044213 -0.094629 -0.226946 0.290931 0.162492 -0.354977 -0.316735 -0.161177 0.495124
Come 0.672254 0.687681 0.357385 -0.310783 0.810742 0.272332 0.669316 -0.674553 -0.270504 0.134179 -0.893895 -0.029590 -0.750392 0.130986 -0.063911 -0.953434 0.592156 0.102892 0.462942 -1.035703 0.576208 0.175523 -0.405087 -0.761389 0.134989 0.956098 -0.992152 -0.222944 -0.458909 0.473372 -0.184215 -0.568164 -0.382273 0.457008 -0.362767 -0.094449 -0.090122 -0.190546 0.483070 0.049849 -0.153365 0.658655 0.400646 -0.903326 -0.229491 0.051259 -0.221287 -0.139927 -0.180141 0.148587
need 0.434702 -0.533004 -0.885494 -0.172137 0.405032 0.272672 0.160208 -0.421840 0.141732 0.263167 -0.316540 -0.414804 -0.166641 0.352774 -0.015399 0.252467 0.036949 -0.010305 -0.130141 -0.005066 0.498217 0.431153 -0.120018 -0.546908 -0.541521 0.303810 -0.343148 0.334904 0.202726 0.194359 0.456944 0.022602 0.148345 0.323906 0.013970 -0.158837 -0.234746 -0.052750 -0.165328 0.406879 -0.293117 0.165989 0.324686 -0.677938 -0.018666 0.761531 -0.199149 -0.690240 0.631507 -0.537984
y'know 0.029891 -0.170699 -0.237947 -0.195749 0.378630 -0.172191 0.177984 0.294458 0.020218 0.216988 -0.267422 -0.527171 0.655577 -0.383551 0.022422 0.148187 0.145083 -0.054800 0.110168 0.319772 0.305056 -0.293235 0.122929 -0.379057 -0.271237 -0.168869 -0.421904 -0.178246 -0.115149 -0.148232 0.462758 0.587716 0.023631 0.329749 0.238196 0.683567 0.353931 -0.279969 0.114500 0.499160 -0.116366 -0.466980 0.074574 -0.710468 -0.080781 0.488588 0.261269 -0.291898 -0.164637 -0.176249
off 0.170797 -0.182135 -0.256126 -0.209930 -0.126714 -0.015298 0.254424 -0.108889 0.052863 -0.233999 -0.180441 -0.302690 -0.949456 -0.368920 -0.314671 -1.072411 0.018724 -0.276070 0.348474 0.349009 -0.452485 0.280757 0.505939 -0.488316 0.440026 0.198663 -0.484226 0.041173 -0.442639 -0.022854 -0.298359 0.132745 0.334431 -0.362656 0.064668 0.161411 -0.107535 0.515592 -0.004501 -0.304164 -0.128430 0.105625 0.165792 -0.001270 -0.253366 -0.034788 -0.410129 -0.215096 0.282170 -0.242237
Its 0.206552 -0.126730 0.713397 -0.239788 0.288575 -0.016311 -0.636554 0.017441 0.255854 -0.179283 -0.090353 -0.366570 -0.342377 -0.332242 0.641381 -0.622274 -0.368674 -0.187370 -0.158562 0.536923 0.160592 -0.114520 -0.036721 -0.280085 -0.509609 0.365689 0.155358 0.301811 0.184374 -0.129350 0.328939 0.694486 -0.252468 -0.295183 -0.020119 -0.688641 0.404891 -0.085296 0.251198 0.088486 0.151256 -0.713837 -0.430155 -0.190656 0.235853 0.552040 0.113337 0.679176 -0.317688 0.472988
by 0.319114 -0.267445 -0.000106 -0.181289 0.415376 0.419102 -0.032092 0.308529 -0.298057 -0.372760 0.610077 -0.211809 -0.322550 -0.299855 -0.451657 -0.685787 -0.290456 -0.404936 -0.278923 0.142015 0.431701 -0.324848 -0.010083 0.102725 -0.135574 0.417514 -0.425825 -0.047446 -0.196549 -0.220975 0.214053 0.217858 -0.264082 -0.588467 -0.259804 0.398453 0.284413 0.755338 0.014585 -0.063808 -0.302422 0.035612 0.177864 0.114438 0.004688 -0.033623 -0.241098 -0.098632 -0.172006 -0.026727
Pheebs 0.208101 0.523650 0.131793 0.334877 0.486846 0.023332 0.129700 -0.367136 0.288007 0.616658 -0.797533 -0.204259 0.427077 -0.238928 0.637438 0.175925 0.290586 0.927169 0.556320 -0.521089 0.434492 0.280806 -0.289424 -0.295873 0.011658 0.308024 -0.168519 -0.864604 -0.294905 0.383272 0.041087 0.041868 -0.340459 0.366573 -0.120125 0.420987 0.289621 0.319487 0.395408 0.056534 -0.788862 0.382994 0.502161 -0.646083 0.339188 -0.014472 0.279342 -0.085122 -0.315865 -0.174762
believe 0.732958 -0.525252 0.236835 -0.877079 -0.287850 0.825043 -0.431509 -0.331335 -0.017449 0.686447 -0.527145 -0.422168 -0.216337 -0.850168 0.086928 0.130673 0.514734 0.236545 0.347831 -0.144409 -0.007232 0.258207 -0.386244 -0.362213 -0.413229 -0.095581 0.687605 1.134271 -0.528230 0.104235 -0.299521 0.262010 0.761441 0.188330 -0.351880 0.912815 -0.369222 -0.940506 0.510900 0.777219 -0.385757 -0.088890 -0.029824 -0.207839 -0.332318 0.640045 -0.437152 0.218046 -0.476785 0.263301
our -0.038745 -0.063791 -0.438612 -0.600163 0.260395 -0.016042 0.331112 0.324253 -0.494972 -0.056493 -0.210647 0.455603 -0.401936 0.133933 -0.395089 -0.539882 -0.294066 -0.324818 0.163759 0.093238 0.108107 0.724312 0.294678 0.351319 0.060048 -0.170173 -0.484535 -0.267468 -0.155423 -0.331398 0.601050 -0.554831 0.718044 -0.324115 0.086833 0.006627 -0.337594 0.090098 0.663114 -0.196789 0.034230 -0.479653 -0.259634 0.129128 -0.003247 -0.173205 -0.166173 -0.449017 -0.669432 -0.280124
umm -0.323114 -0.212413 -0.379645 -0.128984 0.416803 -0.414230 0.250990 0.044353 0.065931 0.531210 -0.113982 -0.497741 0.509920 -0.052904 -0.233754 0.309644 0.177456 0.030074 0.214626 0.073134 0.269240 0.111110 0.008169 -0.099881 0.027665 -0.314574 -0.198550 -0.416731 -0.230315 -0.123673 0.754968 0.314206 0.005820 0.334582 0.214435 0.603502 0.615381 0.159829 0.247352 0.079139 -0.376190 -0.487730 0.235521 -0.799903 0.103404 0.256914 0.404373 -0.023703 -0.210101 -0.436313
II 0.301816 -0.798721 -0.372856 -0.658822 -0.324420 0.412276 -0.058827 -0.295605 0.206586 0.359062 0.051911 -0.599169 0.415373 -0.283606 -0.040329 0.395591 0.208111 0.202085 -0.129831 0.132029 0.329341 0.022468 0.135977 -0.448770 -0.340496 -0.239502 0.296339 0.486668 -0.181086 0.132955 0.221846 0.568535 0.104967 0.106908 0.035756 0.442551 0.264779 -0.311396 0.232095 0.733887 -0.451268 -0.068335 0.082969 -0.324512 -0.010134 0.529186 -0.009717 -0.145913 -0.171933 -0.229472
Really 0.101373 -0.161060 0.415691 -0.186792 0.181901 -0.071081 0.129753 -0.253252 0.091440 0.393437 -0.085399 -0.175255 0.669965 0.243255 -0.075965 -0.026856 0.013737 0.666417 -0.039000 -0.192572 0.194752 -0.315884 -0.209228 -0.069932 0.113803 -0.350021 -0.054114 -0.236074 -0.328600 0.039492 0.076083 0.141395 0.096116 -0.160669 -0.133515 0.071983 0.621905 0.196627 0.221377 0.481961 -0.077063 -0.149103 -0.107513 -0.317786 -0.156577 0.282560 0.404702 0.005751 -0.203019 -0.131393
Thank -0.042307 -0.661804 0.933834 -0.011148 -0.065308 0.293605 -0.371948 -0.396969 0.462617 0.812473 -0.134994 -0.664361 0.037318 0.443544 -0.149152 -0.368679 0.551080 0.995749 -0.046273 -0.528423 -0.013942 0.216981 -0.490104 0.776682 0.142021 -0.004232 -0.010738 -0.705374 -0.053153 -0.457213 0.124898 -0.401326 -0.023621 -0.426886 -0.458778 -0.067892 0.422523 0.199664 0.309043 -0.300798 -0.356228 -0.019663 0.228084 -0.212417 0.244397 0.465813 0.321520 0.594960 -0.488846 0.017519
Y'know -0.138130 -0.337359 -0.290000 0.053086 0.208584 0.000004 -0.231401 0.373667 -0.030918 -0.107022 -0.300526 -0.260972 0.339235 -0.271045 -0.072405 0.045813 -0.190314 -0.235963 0.008120 0.460028 0.574791 -0.206690 0.163762 -0.018000 -0.209691 0.056149 -0.614616 -0.330089 -0.160304 -0.010431 0.407783 0.542355 0.353108 0.178659 0.210334 0.317399 -0.017727 -0.331380 -0.174049 0.336528 -0.023432 -0.420695 -0.057484 -0.452605 -0.082541 0.312964 -0.069624 -0.362599 0.022517 0.030855
thought 0.421834 -0.433543 -0.616397 -0.503766 -0.312238 -0.610638 -0.113248 0.146562 0.764518 0.055244 0.224174 -0.147467 0.203195 -0.065871 -0.225334 0.487730 -0.342549 0.129144 -0.240786 0.367331 -0.156164 -0.027042 0.060700 -0.034290 -0.631280 -0.285764 -0.307916 -0.034063 -0.424163 0.129951 0.244831 0.588657 0.326747 0.567938 0.176656 0.556026 0.576046 -0.355515 0.297689 0.195566 -0.645115 -0.256541 -0.352255 -0.352615 -0.202765 0.457903 -0.323643 -0.409614 -0.046764 -0.130893
He 0.069108 0.020605 -0.189028 -0.579084 -0.384349 -0.107084 -0.194338 0.233271 0.616159 -0.101208 -0.277205 -0.252499 -0.390642 -0.086971 -0.505344 0.123700 -0.035515 0.155388 -0.013619 -0.381530 -0.568656 0.428134 0.705494 0.331150 -0.184946 -0.594084 -0.051684 -0.040324 -0.995720 0.118498 -0.163906 -0.555399 0.853809 0.007101 -0.250488 0.752143 0.095812 -0.466295 -0.061386 0.220672 0.084808 0.176868 -0.604800 0.388531 0.155159 -0.141621 -0.212844 -0.417065 0.090386 0.510269
I've 0.183756 -1.014370 -0.118246 -0.548480 -0.470786 0.400948 -0.209948 -0.235411 0.002783 0.005050 0.559866 0.026061 0.190966 0.816033 -0.901742 0.358173 -0.186586 -0.423568 -0.740389 0.724719 -0.086568 -0.780414 -0.173420 0.184933 -0.828344 -0.168704 -0.432797 0.576136 -0.701567 0.313288 0.181722 -0.188631 -0.348267 0.740494 0.013365 0.039170 0.670281 -0.295642 -0.122208 0.164157 -0.691524 -0.132166 -0.334638 -0.801843 -0.275122 0.308764 -0.380697 -0.144692 -0.305559 -0.425093
first 0.002406 -0.093249 0.340062 -0.568098 0.287780 -0.008251 0.396421 -0.082910 -0.144053 -0.497246 0.180947 -0.120247 -0.303345 0.202044 -0.460413 -0.974537 -0.799919 -0.589569 -0.644761 -0.081392 0.418521 -0.285340 -0.296149 -0.185363 0.014027 -0.051704 -0.740747 -0.207946 -0.531622 0.106346 0.187047 0.000264 0.125801 0.023485 -0.637855 0.505016 -0.054148 0.318806 0.337809 -0.324886 -0.003383 -0.495057 0.058861 -0.151913 -0.043908 0.121646 -0.368706 -0.297143 -0.385218 0.019592
sure 0.321938 -0.551366 0.531822 -0.209684 0.439225 -0.131703 -0.194272 0.063794 -0.136836 0.822056 0.560155 -0.211032 0.565352 -0.062600 -0.287415 -0.085271 0.389466 1.126043 -0.214354 -0.128607 0.092359 -0.501335 -0.426020 -0.551367 0.013704 -0.082710 0.056139 -0.009399 0.037686 -0.087981 0.010607 0.282600 -0.249013 -0.188799 0.168416 -0.377478 0.365887 0.343350 0.477772 0.465964 -0.274848 -0.196781 0.218898 -0.453495 0.272226 0.628042 0.369910 0.141655 -0.224459 -0.580656
Umm -0.102645 -0.255793 -0.042800 -0.144956 0.324914 0.240580 0.467504 -0.462630 0.118378 0.371799 -0.152507 -0.531410 0.718200 0.291221 0.480749 0.260227 -0.015349 0.093027 0.042394 -0.226829 0.535163 0.231162 0.099967 -0.192728 -0.384798 -0.249627 -0.095044 -0.147747 -0.120397 -0.007116 0.299863 0.259324 0.188109 0.623286 -0.001361 0.393054 0.427498 0.087259 0.072597 0.377869 -0.584191 -0.235698 0.385367 -1.030269 0.016072 -0.016516 -0.051404 0.141719 0.379993 -0.357223
didn't 0.481199 -0.656950 -0.523975 -0.899589 -0.445246 0.338027 -0.182082 -0.010283 -0.135302 0.061631 0.128119 -0.248646 0.055145 -0.561825 -0.323971 0.408186 0.250030 0.292128 0.127701 -0.666917 0.306917 0.443492 0.246732 -0.660736 -0.201720 -0.219721 0.291111 0.502557 -0.602957 0.310553 -0.181034 0.539042 0.439854 -0.008936 -0.321680 0.821279 -0.320994 -0.452763 0.014454 0.379220 -0.262408 0.523188 -0.029454 0.046105 -0.081119 0.503925 -0.283866 -0.580759 0.523706 -0.038972
even 0.217396 -0.911799 -0.372474 -0.769855 -0.193342 0.056097 -0.650930 0.006097 -0.078286 -0.097043 0.134063 0.073604 0.053402 -0.506188 -0.333782 0.570509 0.232115 -0.081449 0.110665 -0.014084 0.652259 0.043993 0.171800 -0.451920 -0.506107 0.201329 0.053831 0.598972 -0.454818 0.256280 -0.072261 0.780347 0.235946 0.114722 0.070444 0.643370 -0.278742 -0.838184 0.137884 0.541162 -0.090173 0.171405 -0.116859 -0.029773 -0.036367 0.660276 -0.462220 -0.197105 0.487176 0.058193
youre -0.289107 -0.242657 0.455850 -0.175996 1.177469 -0.250656 -0.798948 0.494351 0.014220 -0.125755 0.140330 -0.084213 0.165443 -0.750400 -0.708188 -0.062481 0.181119 0.284324 0.084459 0.591402 0.309727 -0.288591 -0.418015 -0.455412 0.097015 0.596731 -0.516458 -0.501860 -0.265227 0.054436 -0.061430 0.317037 -0.441066 -0.138766 0.350354 0.279059 0.374267 -0.040315 0.332977 0.509574 0.522887 -0.130512 0.112102 -0.374795 0.176387 0.487756 0.466910 0.399121 -0.224841 0.195981
man 0.028328 0.065359 0.712001 -0.038452 0.127493 0.190472 -0.282764 -0.214193 0.197722 0.327198 -0.410855 -0.205223 -0.316363 0.251027 0.099773 0.042883 0.094891 0.162365 -0.235723 -0.552113 0.285325 -0.229421 -0.216940 0.074325 -0.147488 0.405599 -0.547541 -0.257927 -0.527543 0.275738 0.137967 -0.096784 -0.569539 -0.013919 -0.390219 0.271073 0.092339 0.393606 0.101824 -0.346195 -0.364526 0.252847 0.217552 -0.680497 0.161475 0.232489 -0.109204 0.142569 -0.679703 0.107637
thats -0.369330 -0.272528 0.999007 -0.083572 0.619232 -0.088581 -0.104996 -0.626477 0.003842 -0.237546 0.132167 -0.811138 0.437938 -0.401731 0.140706 -0.015397 -0.751113 0.328913 0.318297 0.454641 0.448131 -0.789782 -0.217139 -0.322661 -0.164379 -0.186463 -0.656600 -0.509271 -0.515359 -0.248257 0.041901 0.700237 -0.145792 -0.112690 0.047814 0.360540 0.872908 0.136345 0.334701 0.110529 0.213137 -0.740900 0.061801 -0.997372 0.311863 -0.030606 0.194750 0.028170 0.061465 -0.268090
Wow -0.309771 -0.124879 0.617324 -0.133917 0.254000 -0.038084 -0.409318 0.083677 0.289607 0.211195 -0.570404 -0.195212 0.247498 0.075411 0.401644 0.073992 0.057023 0.523968 -0.400294 -0.232092 0.267524 -0.225713 0.073877 0.242193 -0.439811 -0.160357 -0.297445 -0.379884 -0.708810 0.096753 0.039651 0.005770 0.310185 -0.019762 -0.205528 0.312972 0.140073 0.022385 0.157345 -0.045368 -0.339125 -0.332556 -0.162557 -0.326716 0.456229 0.044229 0.118948 0.196152 -0.314064 0.124400
give 0.167345 -0.719483 0.100599 -0.400996 0.486213 0.824288 -0.001216 -0.467904 0.156363 0.133146 0.401653 -0.728239 -0.445379 0.084637 -0.560054 -0.488485 0.688483 -0.187493 -0.066866 -0.741843 -0.064037 0.264627 0.089806 -0.278385 -0.320811 0.417650 -0.136378 0.547236 -0.292267 0.132035 0.051488 -0.315936 -0.622125 0.211819 -0.347557 0.045212 0.057109 0.314919 -0.413415 -0.090171 -0.326920 0.766649 0.487564 0.250649 0.425378 0.652074 -0.344267 -0.188716 0.390560 0.127810
Do 0.273266 -0.528597 0.020759 -0.420972 0.031791 -0.126463 0.086233 -0.009008 0.072751 0.477913 -0.136249 -0.185074 0.262139 0.717190 0.105900 -0.007152 0.482644 0.377566 -0.133303 -0.595042 0.358969 0.542282 -0.229312 -0.356670 0.122614 0.096077 -0.094114 0.002908 -0.443754 -0.151643 0.042552 0.236750 0.167214 -0.222748 -0.080665 0.128549 -0.157377 -0.171445 0.282910 0.325289 0.022608 0.314303 -0.032940 -0.574710 -0.065478 0.644114 -0.126725 -0.273054 0.067493 -0.188095
Yknow -0.021192 -0.282882 -0.329979 -0.199047 -0.108432 0.123015 -0.186507 0.287364 0.086669 0.109831 -0.251043 0.031585 0.546376 -0.295555 -0.194218 0.499132 -0.140184 -0.044920 -0.094427 0.008948 0.400156 0.036525 0.081810 -0.058423 -0.197300 -0.089031 -0.097532 -0.193726 -0.512670 0.010488 0.042362 0.474898 0.170187 0.405503 0.248218 0.319233 0.222704 -0.499755 0.126491 0.274721 -0.165292 -0.109098 -0.237485 -0.398184 0.255551 0.086930 0.049934 -0.288126 -0.046271 -0.024195
only 0.107230 -0.743033 0.145921 -0.397051 0.186352 -0.012434 -0.243586 0.103033 -0.268643 -0.560066 0.352256 0.106485 0.138575 0.603764 -0.292364 -0.302366 -0.621924 -0.732808 -0.724580 0.345805 0.589651 -0.744908 -0.099397 -0.275557 -0.695939 0.073764 -0.567146 0.254241 -0.340231 0.113546 -0.092796 0.322391 0.171645 0.424166 -0.309455 0.206567 -0.230953 -0.405026 -0.111905 0.173873 0.054282 -0.335043 -0.217146 -0.363134 0.090426 0.614970 -0.588931 -0.308554 0.246555 0.041921
very -0.607631 -0.799090 0.536206 -0.071405 0.238937 -0.282563 -1.161686 0.251559 0.170330 0.223762 0.032831 -0.527215 0.597361 0.463288 0.204812 0.243563 0.181896 1.004649 -0.406780 0.133255 0.108145 -0.552082 0.198148 0.528465 -0.587476 -0.119494 -0.321236 -0.552211 0.388219 -0.450533 0.373240 0.265725 0.075071 -0.834688 -0.226575 -0.208922 0.166528 0.091396 0.180564 0.083912 0.474287 -0.633436 -0.037173 0.169750 0.648411 0.685037 0.545586 0.311200 -0.421027 -0.215533
Ok 0.508654 0.047260 -0.055499 0.268369 0.597852 -0.364446 0.306741 -0.787914 -0.103560 0.268202 0.361290 -0.185850 0.522399 0.324872 0.381413 -0.309862 -0.031980 0.645871 0.507048 0.085999 0.330109 -0.252996 -0.558009 -0.347848 -0.369309 0.209731 0.026872 -0.795413 0.274579 0.184903 0.284019 0.184175 -0.762131 0.242724 -0.102887 0.061172 0.505806 0.046565 0.362246 -0.283856 -0.388283 -0.167220 0.173805 -0.202761 0.745007 0.006317 -0.077031 -0.216867 -0.251092 -0.460195
gotta 0.476300 -0.466989 -0.192148 -0.358688 0.193606 0.322546 0.462859 -0.339858 0.103246 0.530578 0.170655 -0.898749 -0.348010 -0.407030 -0.477299 -0.326148 0.586118 -0.314473 -0.007844 -0.573989 -0.138340 0.559355 -0.365009 -0.326399 0.100476 0.412886 -0.232554 0.769271 0.057819 -0.239615 0.312689 -0.096893 -0.113861 0.149656 -0.512828 -0.071720 -0.104973 0.418189 -0.155228 0.205858 -0.403311 0.403651 0.591865 -0.358789 -0.094753 0.902196 0.001210 -0.003833 0.279997 -0.196106
has 0.046823 0.061918 0.107035 0.039394 -0.171764 0.322882 -0.463964 -0.077019 0.214279 -0.391915 -0.649402 -0.432930 -0.193063 0.650343 -0.340741 0.018911 -0.142016 -0.138136 -0.422194 0.227057 -0.219000 -0.643886 0.881663 0.342497 -1.055240 -0.750457 -0.129413 -0.297924 -1.224281 0.518464 0.010140 -0.526178 -0.013162 0.098756 -0.151979 0.414523 0.188366 -0.148154 -0.487789 -0.191953 -0.247015 0.064095 -0.535800 -0.106397 0.455912 -0.195240 -0.071970 -0.710550 -0.314889 0.141737
let 0.393953 -0.462822 -0.387554 -0.418183 0.274729 0.463989 -0.019180 -0.321469 0.119709 0.674543 0.102169 -0.970014 -0.289697 -0.684444 -0.581616 -0.160759 0.910423 0.129558 0.285171 -0.623018 0.112385 -0.034378 0.086530 -0.379301 -0.025352 0.439766 -0.174739 0.471849 -0.099426 -0.152950 0.126742 0.069870 -0.468865 0.042602 0.167902 0.302015 0.152430 0.085677 0.051612 0.443765 -0.494375 0.689009 0.393562 0.031109 0.146724 0.527607 -0.171390 0.111195 0.304257 0.124490
actually -0.110813 -0.370952 0.120373 -0.257427 0.247503 -0.363662 -0.298327 0.111411 0.191248 -0.103641 -0.123844 0.198573 -0.033013 0.104811 0.063149 0.027711 -0.246070 0.204264 -0.374494 0.442916 0.175932 0.065033 0.096192 -0.266296 -0.398874 -0.081351 -0.262650 -0.234845 -0.626294 0.178316 -0.040142 0.139030 0.436088 0.139594 0.144643 0.299959 0.368371 -0.096243 0.194245 0.126302 -0.247664 -0.435108 -0.050066 -0.378910 0.088661 0.185761 0.238584 0.067322 0.008143 -0.216273
before 0.144029 -0.276273 -0.616799 -0.683046 0.020860 0.168468 0.148765 0.248221 0.089102 0.219073 0.265022 -0.358356 -0.035440 0.098496 -0.558790 0.007913 -0.163685 -0.436375 -0.315373 -0.019584 -0.045207 0.093391 0.045180 0.226352 -0.011252 -0.010131 -0.373179 0.040059 -0.466594 -0.164616 0.420043 -0.153104 0.053072 0.061353 0.066397 0.512953 0.168854 0.232910 0.075057 -0.017916 -0.271706 -0.086612 0.101092 0.143939 0.245065 -0.090202 -0.108701 -0.274516 -0.457881 -0.063164
cant 0.766575 -0.426249 0.205142 -0.700868 0.055971 0.632065 -0.353123 -0.422703 -0.127640 0.527159 -0.089235 -0.729780 -0.150880 -0.971978 -0.053487 -0.187243 0.566632 0.529961 0.360753 -0.249010 -0.027733 0.297940 -0.408699 -0.593753 -0.296779 0.213858 0.367359 0.824793 0.034490 0.092180 -0.319865 0.257239 0.152527 0.127189 -0.289585 0.290477 -0.074693 -0.403637 0.469582 0.664974 -0.463112 0.203489 0.254833 -0.038041 -0.108676 0.796014 -0.178108 0.368666 -0.090044 0.040077
stuff 0.024680 -0.129980 -0.290419 -0.306394 0.406286 -0.066300 0.239649 0.001312 -0.137657 0.104660 -0.368436 -0.043283 0.011729 0.096298 0.097261 -0.584844 -0.209000 -0.696922 -0.104115 0.033840 -0.206593 -0.065877 0.630993 -0.132668 -0.338083 0.159429 -0.020201 0.151741 -0.822100 -0.485855 0.704515 0.347237 0.350693 -0.367242 -0.133200 0.361410 -0.167209 0.501583 0.234582 0.263238 -0.050923 -0.164074 -0.105723 -0.428189 -0.116204 0.326382 0.016239 0.109334 -0.306554 0.069479
wait 0.343475 -0.051871 0.289818 -0.025064 0.271426 1.120363 0.376436 -0.777228 -0.352703 0.546035 -0.229654 -0.736423 0.457976 0.315001 1.103018 -0.262075 0.619615 1.171084 0.126142 -0.755486 0.826095 -0.260015 -0.899185 -0.181294 -0.976856 -0.622558 -0.035363 0.164861 0.740298 0.563129 -0.448848 -0.439527 0.178908 0.301223 -0.442711 0.073458 -0.259542 -0.663103 0.420159 -0.032452 -0.384878 -0.032124 0.241381 0.197525 0.600480 0.321331 0.041580 0.169747 0.225681 -0.465393
work 0.419698 -0.151248 -0.091606 -0.416895 0.231296 0.065250 0.328497 0.110681 0.022725 0.083692 -0.174289 -0.226911 0.121098 -0.130915 -0.354921 -0.415422 -0.106389 -0.253184 -0.162502 -0.092034 0.364303 -0.017325 0.211062 -0.291203 -0.077353 -0.166416 -0.189967 -0.053068 -0.508759 -0.138656 0.088521 0.127477 0.444287 -0.285750 -0.161332 0.484764 0.093108 -0.070525 0.256386 0.372991 -0.344733 0.008174 -0.075071 0.085811 0.039674 0.190251 -0.304042 -0.206167 -0.153649 0.242934
call 0.488163 -0.192996 -0.321156 -0.327626 0.146663 -0.240295 0.308995 -0.263322 0.216737 0.501261 0.076148 -0.506485 -0.246090 -0.205116 -0.548612 -0.721505 0.689224 -0.067365 0.431507 -0.357387 -0.241189 0.013358 0.220714 -0.231390 0.502705 -0.040493 -0.143706 0.319699 -0.317012 -0.219028 0.399216 0.209812 -0.066018 -0.338913 -0.189587 0.160266 -0.303832 0.261750 -0.121997 0.051916 -0.516155 0.159610 0.119943 0.158390 -0.124657 0.364096 -0.305544 -0.205879 0.045066 0.055598
more 0.032851 -1.010190 -0.177208 -0.435243 0.170020 0.085408 -0.408610 0.001356 0.091035 0.243634 0.010154 0.037700 0.309081 0.851838 -0.039472 0.894454 -0.079046 -0.841001 -1.038896 -0.097421 -0.066278 -0.407567 0.304657 0.151397 -0.809479 0.441346 -0.297224 0.535458 0.084976 -0.531880 0.095244 0.219313 -0.326100 -0.086052 -0.417940 -0.476171 -0.165530 -0.123909 -0.304928 0.144529 0.081450 0.022366 0.008647 -0.281517 0.296628 0.783663 -0.126492 0.226875 0.148636 -0.179693
talk 0.194310 -0.548403 -0.665090 -0.379717 -0.040315 0.556783 0.069538 0.078466 0.060350 0.361173 0.002827 -0.633501 -0.295379 -0.237196 0.010839 -0.010407 0.287700 0.046688 -0.174743 -0.053359 0.096351 0.801020 0.457738 -0.232087 -0.559590 0.347405 -0.053468 0.101754 0.061187 -0.143919 0.593183 -0.264203 0.077113 0.165060 0.214695 -0.170727 0.414928 0.630679 0.200279 0.327570 -0.688501 0.300487 0.422700 -0.538834 0.031053 0.487318 0.130910 0.056551 0.337913 -0.747308
big -0.242279 -0.104521 0.677616 -0.000775 -0.052718 0.172314 -0.061248 0.015818 -0.054443 -0.346857 -0.115091 -0.356593 -0.001459 0.786255 0.599201 -0.335353 -0.275879 -0.237238 -0.600222 -0.068264 0.221270 -0.587010 0.354804 -0.221002 -0.619209 -0.432271 -0.310870 0.016194 0.037702 0.122179 0.108270 0.025212 -0.218361 -0.100602 -0.426557 0.024921 -0.228858 -0.218887 -0.255008 -0.306028 0.448683 -0.416312 -0.448072 -0.200038 0.233450 0.526698 0.065485 -0.462130 -0.095767 0.089046
other -0.098944 -0.021768 -0.313578 -0.216506 0.298918 -0.025401 0.712697 0.378433 -0.318979 -0.429124 0.274473 -0.018612 0.466679 0.844577 -0.063418 -0.332559 -1.013563 -1.261781 -0.669123 -0.652149 0.536427 0.018111 -0.287450 0.027285 0.024172 -0.147847 -0.123419 -0.164811 -0.064885 -0.157626 0.280665 0.608728 0.177166 0.388390 -0.569184 0.190548 -0.221448 0.171743 0.012957 -0.638901 -0.054262 -0.155585 0.112929 -0.846429 0.189220 0.229203 -0.647123 -0.450475 0.409267 -0.346691
please 0.054645 -0.228537 0.036692 -0.183594 0.073181 0.730603 0.149515 -0.597308 0.345041 0.909808 -0.254475 -0.916560 -0.400969 -0.114010 0.315118 0.155848 0.827959 0.708875 0.330894 -0.819606 0.346957 0.297632 -0.319879 -0.111368 -0.313477 0.117542 -0.341515 0.029190 -0.195494 0.029014 -0.065969 -0.238005 -0.114526 0.147483 0.281290 0.207983 0.245577 0.091191 0.306416 -0.203372 -0.605881 0.284082 0.380402 -0.494317 0.390131 0.170040 -0.050069 0.061627 0.246303 -0.318131
